/*
 * Copyright (c) 2025 EdgeImpulse Inc.
 *
 * Generated by Edge Impulse and licensed under the applicable Edge Impulse
 * Terms of Service. Community and Professional Terms of Service
 * (https://edgeimpulse.com/legal/terms-of-service) or Enterprise Terms of
 * Service (https://edgeimpulse.com/legal/enterprise-terms-of-service),
 * according to your product plan subscription (the “License”).
 *
 * This software, documentation and other associated files (collectively referred
 * to as the “Software”) is a single SDK variation generated by the Edge Impulse
 * platform and requires an active paid Edge Impulse subscription to use this
 * Software for any purpose.
 *
 * You may NOT use this Software unless you have an active Edge Impulse subscription
 * that meets the eligibility requirements for the applicable License, subject to
 * your full and continued compliance with the terms and conditions of the License,
 * including without limitation any usage restrictions under the applicable License.
 *
 * If you do not have an active Edge Impulse product plan subscription, or if use
 * of this Software exceeds the usage limitations of your Edge Impulse product plan
 * subscription, you are not permitted to use this Software and must immediately
 * delete and erase all copies of this Software within your control or possession.
 * Edge Impulse reserves all rights and remedies available to enforce its rights.
 *
 * Unless required by applicable law or agreed to in writing, the Software is
 * distributed on an "AS IS" BASIS, WITHOUT WARRANTIES OR CONDITIONS OF ANY KIND,
 * either express or implied. See the License for the specific language governing
 * permissions, disclaimers and limitations under the License.
 */
// Generated on: 11.07.2025 14:42:35

#include <stdio.h>
#include <stdlib.h>
#include "edge-impulse-sdk/tensorflow/lite/c/builtin_op_data.h"
#include "edge-impulse-sdk/tensorflow/lite/c/common.h"
#include "edge-impulse-sdk/tensorflow/lite/micro/micro_mutable_op_resolver.h"
#include "edge-impulse-sdk/porting/ei_classifier_porting.h"

#if EI_CLASSIFIER_PRINT_STATE
#if defined(__cplusplus) && EI_C_LINKAGE == 1
extern "C" {
    extern void ei_printf(const char *format, ...);
}
#else
extern void ei_printf(const char *format, ...);
#endif
#endif

#define STRINGIZE(x) #x
#define STRINGIZE_VALUE_OF(x) STRINGIZE(x)

#if defined (__GNUC__)  /* GNU compiler */
#define ALIGN(X) __attribute__((aligned(X)))
#define DEFINE_SECTION(x) __attribute__((section(x)))
#elif defined (_MSC_VER)
#define ALIGN(X) __declspec(align(X))
#elif defined (__TASKING__) /* TASKING Compiler */
#define ALIGN(X) __align(X)
#define DEFINE_SECTION(x) __attribute__((section(x)))
#elif defined (__ARMCC_VERSION) /* Arm Compiler */
#define ALIGN(X) __ALIGNED(x)
#define DEFINE_SECTION(x) __attribute__((section(x)))
#elif defined (__ICCARM__) /* IAR Compiler */
#define ALIGN(x) __attribute__((aligned(x)))
#define DEFINE_SECTION(x) __attribute__((section(x)))
#elif defined (__clang__) /* LLVM/Clang Compiler */
#define ALIGN(X) __ALIGNED(x)
#define DEFINE_SECTION(x) __attribute__((section(x)))
#endif

#if defined(EI_MODEL_SECTION) && (defined(__GNUC__) || defined(__clang__))
#define MODEL_SECTION(X) __attribute__((section(STRINGIZE_VALUE_OF(X))))
#else
#define MODEL_SECTION(X)
#endif

#ifndef EI_MAX_SCRATCH_BUFFER_COUNT
#ifndef CONFIG_IDF_TARGET_ESP32S3
#define EI_MAX_SCRATCH_BUFFER_COUNT 14
#else
#define EI_MAX_SCRATCH_BUFFER_COUNT 28
#endif // CONFIG_IDF_TARGET_ESP32S3
#endif // EI_MAX_SCRATCH_BUFFER_COUNT

#ifndef EI_MAX_OVERFLOW_BUFFER_COUNT
#define EI_MAX_OVERFLOW_BUFFER_COUNT 10
#endif // EI_MAX_OVERFLOW_BUFFER_COUNT

using namespace tflite;
using namespace tflite::ops;
using namespace tflite::ops::micro;

namespace {

#if defined(EI_CLASSIFIER_ALLOCATION_STATIC_HIMAX) || defined(EI_CLASSIFIER_ALLOCATION_STATIC_HIMAX_GNU)
constexpr int kTensorArenaSize = 242592;
#else
constexpr int kTensorArenaSize = 241568;
#endif

#if defined(EI_CLASSIFIER_ALLOCATION_STATIC)
#if defined (EI_TENSOR_ARENA_LOCATION)
uint8_t tensor_arena[kTensorArenaSize] ALIGN(16) DEFINE_SECTION(STRINGIZE_VALUE_OF(EI_TENSOR_ARENA_LOCATION));
#else
uint8_t tensor_arena[kTensorArenaSize] ALIGN(16);
#endif
#elif defined(EI_CLASSIFIER_ALLOCATION_STATIC_HIMAX)
#pragma Bss(".tensor_arena")
uint8_t tensor_arena[kTensorArenaSize] ALIGN(16);
#pragma Bss()
#elif defined(EI_CLASSIFIER_ALLOCATION_STATIC_HIMAX_GNU)
uint8_t tensor_arena[kTensorArenaSize] ALIGN(16) __attribute__((section(".tensor_arena")));
#else
#define EI_CLASSIFIER_ALLOCATION_HEAP 1
uint8_t* tensor_arena = NULL;
#endif

static uint8_t* tensor_boundary;
static uint8_t* current_location;

template <int SZ, class T> struct TfArray {
  int sz; T elem[SZ];
};

enum used_operators_e {
  OP_CONV_2D, OP_DEPTHWISE_CONV_2D, OP_PAD, OP_ADD, OP_SOFTMAX,  OP_LAST
};

struct TensorInfo_t { // subset of TfLiteTensor used for initialization from constant memory
  TfLiteAllocationType allocation_type;
  TfLiteType type;
  void* data;
  TfLiteIntArray* dims;
  size_t bytes;
  TfLiteQuantization quantization;
};

typedef struct {
  TfLiteTensor tensor;
  int16_t index;
} TfLiteTensorWithIndex;

typedef struct {
  TfLiteEvalTensor tensor;
  int16_t index;
} TfLiteEvalTensorWithIndex;

TfLiteContext ctx{};
static const int MAX_TFL_TENSOR_COUNT = 4;
static TfLiteTensorWithIndex tflTensors[MAX_TFL_TENSOR_COUNT];
static const int MAX_TFL_EVAL_COUNT = 4;
static TfLiteEvalTensorWithIndex tflEvalTensors[MAX_TFL_EVAL_COUNT];
TfLiteRegistration registrations[OP_LAST];

namespace g0 {
const TfArray<4, int> tensor_dimension0 = { 4, { 1,96,96,1 } };
const TfArray<1, float> quant0_scale = { 1, { 0.0039215688593685627, } };
const TfArray<1, int> quant0_zero = { 1, { -128 } };
const TfLiteAffineQuantization quant0 = { (TfLiteFloatArray*)&quant0_scale, (TfLiteIntArray*)&quant0_zero, 0 };
const MODEL_SECTION(EI_MODEL_SECTION) ALIGN(16) int32_t tensor_data1[4*2] = { 
  0, 0, 
  0, 1, 
  0, 1, 
  0, 0, 
};
const TfArray<2, int> tensor_dimension1 = { 2, { 4,2 } };
const MODEL_SECTION(EI_MODEL_SECTION) ALIGN(16) int32_t tensor_data2[4] = { 21076, -32877, -40601, -29283, };
const TfArray<1, int> tensor_dimension2 = { 1, { 4 } };
const TfArray<4, float> quant2_scale = { 4, { 0.00023408704146277159, 0.00017759492038749158, 0.00015824235742911696, 0.0001930971338879317, } };
const TfArray<4, int> quant2_zero = { 4, { 0,0,0,0 } };
const TfLiteAffineQuantization quant2 = { (TfLiteFloatArray*)&quant2_scale, (TfLiteIntArray*)&quant2_zero, 0 };
const MODEL_SECTION(EI_MODEL_SECTION) ALIGN(16) int8_t tensor_data3[4*1*1*32] = { 
  /* [0][0][][] */ 76,-20,-51,-24,127,-8,9,-21,102,-11,114,93,-35,-18,17,20,25,-15,-80,4,1,89,-53,104,29,-3,5,43,65,-28,45,10, 
  /* [1][0][][] */ 56,78,-82,-43,-65,43,120,42,-32,-56,-112,16,92,-59,116,-123,127,-89,-9,-39,21,-71,-64,-32,16,-73,74,-88,-53,-114,-28,-33, 
  /* [2][0][][] */ -57,127,37,95,-87,-6,107,53,-67,-104,49,-64,-98,104,-127,68,66,87,76,-62,-17,-31,-11,-40,37,-29,105,-94,8,28,75,84, 
  /* [3][0][][] */ 67,-66,79,-4,-9,102,29,-7,12,-125,-6,85,70,-27,-127,-20,108,-93,108,13,-102,5,16,-16,80,7,-86,61,-63,118,26,50, 
};
const TfArray<4, int> tensor_dimension3 = { 4, { 4,1,1,32 } };
const TfArray<4, float> quant3_scale = { 4, { 0.0040815491229295731, 0.0030965507030487061, 0.0027591187972575426, 0.0033668477553874254, } };
const TfLiteAffineQuantization quant3 = { (TfLiteFloatArray*)&quant3_scale, (TfLiteIntArray*)&g0::quant2_zero, 0 };
const MODEL_SECTION(EI_MODEL_SECTION) ALIGN(16) int32_t tensor_data4[32] = { -101, 454, -583, 230, 167, 79, 153, 102, -1123, -536, -545, -557, 8, -95, 815, -175, 314, -974, 24, -1170, -693, -730, -1219, 535, -349, -1009, 115, -989, -1047, 143, -795, 208, };
const TfArray<1, int> tensor_dimension4 = { 1, { 32 } };
const TfArray<32, float> quant4_scale = { 32, { 6.0950627812417224e-05, 4.4094114855397493e-05, 5.2582923672161996e-05, 5.8722733228933066e-05, 5.7396722695557401e-05, 5.8216464822180569e-05, 5.1341579819563776e-05, 5.7911554904421791e-05, 5.057481030235067e-05, 6.7859502451028675e-05, 5.2591760322684422e-05, 5.3130392188904807e-05, 5.4006442951504141e-05, 5.7077053497778252e-05, 5.5940017773536965e-05, 6.5238491515628994e-05, 4.6538782044081017e-05, 4.8764450184535235e-05, 4.748004357679747e-05, 5.0041511713061482e-05, 5.341814539860934e-05, 6.1478429415728897e-05, 5.1581599109340459e-05, 5.4403531976277009e-05, 5.7242181355832145e-05, 4.9000460421666503e-05, 4.7793932026252151e-05, 4.8126614274224266e-05, 4.9120855692308396e-05, 4.6678793296450749e-05, 4.6854198444634676e-05, 5.7004293921636418e-05, } };
const TfArray<32, int> quant4_zero = { 32, { 0,0,0,0,0,0,0,0,0,0,0,0,0,0,0,0,0,0,0,0,0,0,0,0,0,0,0,0,0,0,0,0 } };
const TfLiteAffineQuantization quant4 = { (TfLiteFloatArray*)&quant4_scale, (TfLiteIntArray*)&quant4_zero, 0 };
const MODEL_SECTION(EI_MODEL_SECTION) ALIGN(16) int8_t tensor_data5[32*1*1*96] = { 
  /* [0][0][][] */ -35,-20,68,-3,62,-23,-58,-62,15,-95,-73,-9,37,-23,-35,52,-40,-23,-87,-44,-67,-117,4,79,-127,-14,54,-25,73,8,-28,-59,41,-49,-73,27,-78,-77,-67,31,33,-64,-69,83,34,-85,44,-36,-5,-52,-43,56,-51,-40,-76,67,-2,54,78,-66,-43,61,-60,32,-26,11,52,70,29,64,34,-92,74,-103,41,60,-66,-10,-39,37,34,-10,55,-21,-31,-78,-84,73,-1,75,-20,-78,-6,35,-5,1, 
  /* [1][0][][] */ -35,2,-112,19,-33,99,49,6,70,-91,-86,96,70,-5,35,35,105,-26,39,127,-40,17,17,9,28,33,-62,81,-33,-33,105,-42,38,117,1,46,63,59,-55,-61,-39,-13,8,-107,-17,27,-19,-90,-16,-58,125,77,-5,33,-59,-64,46,112,42,96,-70,93,-47,-68,-53,25,56,29,115,57,19,26,-125,74,-72,55,56,-46,-20,47,-65,96,-26,-84,4,54,-35,-103,12,58,74,31,98,108,41,-7, 
  /* [2][0][][] */ 41,47,-41,39,-28,-54,59,86,-111,35,-29,86,80,-21,71,-76,-37,-18,6,25,-97,-36,84,29,-59,28,91,19,-47,74,48,70,-85,-8,-81,-122,-107,39,71,-10,-127,-54,-10,4,-80,101,-35,-47,82,-5,36,-106,-44,43,-16,18,-91,81,-59,18,-9,53,-79,38,57,46,51,86,-81,19,-11,-94,32,-87,39,11,-29,-53,-10,19,15,-115,-42,-67,19,-121,-35,-18,48,47,-20,9,-67,-105,-73,-92, 
  /* [3][0][][] */ 67,-5,5,-2,-49,52,-68,35,17,17,56,10,78,76,62,11,91,87,-50,20,75,-98,-48,-79,-73,-77,-54,81,3,-89,69,21,-82,-13,-7,-7,-99,-57,18,49,-2,-57,-49,12,59,27,-56,-89,63,-58,32,-3,69,-28,69,-71,-95,-71,-93,-31,-65,26,-31,59,45,-18,-38,-11,-14,-30,5,82,23,-127,52,-36,24,37,85,-63,-58,-83,25,76,40,-18,-25,-107,-108,-13,3,-71,70,-70,-66,-14, 
  /* [4][0][][] */ 54,63,-5,50,-14,-28,33,-2,66,127,-22,28,25,5,4,-67,-39,-12,-14,26,95,-25,58,7,44,48,33,-55,-24,18,-57,-45,112,96,44,-44,19,38,-95,15,13,-60,-82,-81,50,64,61,23,24,8,-1,-79,-80,89,-56,27,60,-87,5,-8,-12,-49,27,-48,-39,47,-12,-34,22,-86,-53,-48,-46,77,62,35,32,49,-7,-54,-1,-14,-36,43,-14,104,62,-14,-51,-8,49,25,64,80,-48,55, 
  /* [5][0][][] */ 65,-52,60,58,31,-83,30,48,61,-127,10,-48,16,53,17,42,56,43,-100,63,10,2,17,-12,-98,-73,-9,-56,37,31,8,-66,-51,0,-60,2,-95,-49,31,26,-65,-27,37,83,-29,25,1,-32,-106,59,11,36,35,-2,21,-17,79,44,-31,-14,37,-46,8,-51,-34,78,-15,31,52,0,63,-61,-30,22,-8,-45,20,-54,6,76,82,27,-5,90,-45,19,0,33,25,-98,82,72,-21,23,44,-86, 
  /* [6][0][][] */ 23,-34,81,72,-66,-45,10,62,-17,-80,21,-75,74,45,99,-90,45,9,-34,90,-63,-116,95,54,-44,-68,-6,-44,-39,-99,44,-50,-101,-94,-38,-81,-3,25,-95,76,86,56,40,-2,-85,97,-94,-65,-78,38,-16,-40,57,-95,86,-27,16,6,-47,114,-68,-1,41,-50,-42,58,87,-34,69,11,-89,5,51,-76,-65,-26,-62,-76,-33,-12,37,-17,38,1,-51,-127,-16,-83,48,80,73,21,-38,-45,72,-43, 
  /* [7][0][][] */ 93,24,-45,-23,-54,95,-8,2,81,-5,-65,2,42,-66,35,54,48,19,-14,89,38,21,-7,66,-77,74,28,43,-92,56,-17,38,-10,22,44,82,-70,49,-18,-15,80,-62,83,60,47,1,63,-127,33,-32,-79,-37,-20,11,20,12,95,-57,2,-29,15,-7,58,-85,-56,-40,50,22,-78,33,49,66,69,-9,49,50,-49,46,-64,35,74,-23,-5,-35,59,-29,-77,59,26,-2,48,53,-35,-20,-1,-57, 
  /* [8][0][][] */ -17,19,-56,-104,25,-5,-91,-44,-10,2,12,58,-23,-64,-98,-88,-86,55,-78,-10,6,-42,48,69,-47,51,16,42,-67,2,-103,71,77,-55,17,-31,80,-17,-38,34,40,61,-124,-127,-36,-49,-44,120,4,-108,-80,-29,-79,40,-56,-114,13,64,-103,61,68,13,15,67,-49,-64,-45,57,-99,15,2,-28,38,59,-19,-9,-63,92,46,36,3,40,-122,-103,-3,85,41,-57,35,-39,-95,59,-97,-113,-65,36, 
  /* [9][0][][] */ -2,28,74,15,38,-84,-46,-89,34,51,-23,21,-22,-43,-68,-28,-12,-15,-25,-50,7,63,-75,-74,127,-12,29,6,4,2,-71,47,48,-9,14,-26,-60,-3,-27,-43,13,-60,18,-73,46,-1,-63,76,17,-21,-69,-49,33,1,-59,65,39,-53,-7,-20,-73,57,39,-60,-69,-6,54,17,-40,48,87,-73,8,47,-76,-76,-59,-58,10,70,7,3,102,1,-29,-5,13,15,87,74,10,56,58,-13,22,-20, 
  /* [10][0][][] */ -92,88,127,-72,-30,65,70,28,3,81,-1,-76,74,54,-64,39,-50,33,-20,1,-4,12,28,-34,83,30,-84,-72,-7,89,-95,-89,50,56,85,47,28,-2,-20,7,-49,84,-109,-11,-63,-76,-9,18,17,-21,13,-13,40,40,-70,-61,-102,-35,92,-60,-19,45,117,21,87,-80,-40,8,1,-35,-89,-75,95,66,-37,73,6,111,81,55,49,-19,104,64,-60,62,60,36,92,73,36,-77,-62,5,-58,11, 
  /* [11][0][][] */ 74,28,-36,66,81,32,40,-12,79,40,-71,52,-23,-100,-10,-43,-43,-86,15,17,8,27,24,-103,-127,-112,-36,62,56,-8,6,-20,-109,-70,29,15,-91,31,-62,-44,-34,93,-73,4,-43,-58,-107,-113,39,52,72,42,-84,-79,-3,8,-69,-49,-48,-71,-54,63,71,0,-1,65,-67,17,59,34,-96,-75,20,45,-86,40,-47,-14,-67,58,-102,-37,-91,-24,40,-102,-8,-37,-115,-43,-12,-96,-90,-40,-68,-71, 
  /* [12][0][][] */ -10,71,-45,4,72,10,-17,12,-69,5,-1,9,-51,-31,2,-45,-66,-39,-85,-70,9,-54,17,85,-49,-67,76,-68,70,21,-31,99,-90,-68,-62,9,3,-72,-21,36,99,46,-72,-21,-31,-59,-77,96,-81,-127,-57,105,39,-9,-62,60,-3,-40,58,69,63,94,-16,48,81,25,-37,99,40,89,14,51,69,66,-4,9,-14,36,-123,-55,-40,82,27,33,-14,-9,51,96,-119,-105,63,38,79,-3,28,50, 
  /* [13][0][][] */ 105,-43,78,67,56,89,47,61,30,-56,-3,-26,91,76,72,-28,-89,-30,-29,37,60,-4,85,-22,-78,44,20,25,-49,-81,54,29,1,100,5,28,-93,-33,17,73,-60,39,-44,21,-23,23,15,-10,54,95,-47,-101,-97,-20,63,-40,-54,44,-43,-57,-45,76,-58,-9,-24,-32,-46,76,-16,-9,88,11,-44,28,-35,-52,-83,31,84,-77,26,-78,74,-7,-32,-127,49,52,6,-69,-34,59,81,-48,25,-19, 
  /* [14][0][][] */ -66,-18,60,76,65,-2,-2,-87,-38,-76,72,54,-35,-73,-88,-53,-18,-49,-19,41,-21,18,37,43,-86,-70,-21,41,-114,-82,-53,47,72,-37,-40,18,110,103,59,-94,13,-69,59,78,58,-71,42,-77,69,-5,76,65,94,15,7,-2,-19,10,73,83,15,-66,-5,69,-60,-12,52,-88,-64,-42,-37,90,26,65,49,-32,47,-55,66,52,58,-9,-62,-4,-98,-21,-54,86,127,53,86,-41,78,99,7,66, 
  /* [15][0][][] */ 19,-25,-1,42,61,-67,35,-24,14,15,-53,19,77,20,-44,-83,47,4,-36,18,12,23,61,74,97,45,44,48,39,36,49,-76,14,2,-18,-6,-41,95,127,-52,5,73,-44,-34,-1,-60,-10,-4,18,-45,-9,9,-56,-82,-40,14,38,23,4,63,-45,-55,-12,78,-8,54,-54,-5,-47,-10,53,-56,27,21,73,-81,-15,51,75,40,-56,39,-65,-54,-73,0,-48,13,95,57,-74,-30,29,59,-80,97, 
  /* [16][0][][] */ -59,20,95,-46,46,116,-33,49,34,14,-81,69,-7,-55,-50,-34,117,81,38,63,97,48,-26,60,-43,41,-56,75,-93,24,42,29,-127,77,50,60,-28,35,-45,-48,35,-27,89,102,66,109,72,-10,-72,-86,11,122,-25,78,70,44,37,100,80,36,127,107,25,68,48,22,-26,101,47,108,-35,-4,40,57,76,94,9,91,-91,9,25,-69,56,35,32,37,110,13,44,0,-16,116,71,-14,-72,8, 
  /* [17][0][][] */ 5,-116,7,50,-59,-123,-80,-102,31,-57,52,23,64,34,-81,21,6,23,115,80,-104,17,-10,-68,78,50,-92,2,92,-67,-50,44,-41,-46,11,-15,-64,70,-100,-50,-106,-58,-36,-31,-17,-13,66,-118,66,69,-34,0,-38,113,67,-86,-127,54,-97,-122,6,-105,65,66,-94,-89,65,-113,-119,-25,73,4,-7,-111,-80,37,80,4,14,-75,-12,-36,-79,-104,-121,110,49,-52,61,50,-103,-126,-31,80,-12,-4, 
  /* [18][0][][] */ -95,106,104,-72,-5,-107,-78,24,-28,44,-88,-39,-36,-17,50,-31,24,-28,2,-31,77,-92,6,-65,-31,-110,-14,107,36,44,-6,39,11,-30,-101,-127,-50,-6,-25,65,-61,18,-49,2,-106,14,-4,9,-12,-30,45,36,-90,-18,-5,72,-89,37,-69,-92,89,103,-7,39,-74,-107,-16,92,58,-81,-107,87,-85,-85,-62,-86,59,2,-2,-46,-49,-20,-69,-69,110,-65,26,72,-96,-71,-59,99,60,-48,12,-71, 
  /* [19][0][][] */ -3,6,36,7,25,-97,59,58,52,-73,2,-32,-102,10,-69,26,37,-110,74,22,-46,49,-71,-14,111,-88,1,-82,-98,-121,-80,16,50,-92,8,-25,-15,-83,-68,-107,13,-127,-97,-15,-98,-4,46,-38,-44,12,-61,13,-55,55,-19,-29,-4,61,-24,-46,22,-70,65,29,-87,-25,-46,-25,-32,19,42,-67,-75,-120,-69,-94,-43,-64,-11,63,24,-123,-51,39,-93,40,-15,-32,60,-1,-31,31,-52,73,33,-66, 
  /* [20][0][][] */ -25,38,39,66,-83,58,-1,30,14,37,-86,-16,-23,61,19,-77,-59,-48,-33,-32,20,-37,-77,-74,126,-35,-100,20,3,-6,-46,73,127,19,-25,95,57,2,-26,-106,-37,-45,-85,-100,-38,-68,-63,68,32,-77,-44,23,22,85,63,-17,123,40,62,52,71,-61,-42,-41,-30,-69,-57,-6,-81,-68,-65,82,-68,-17,6,1,69,115,75,69,54,-4,119,27,29,125,-26,42,23,108,9,35,67,14,50,54, 
  /* [21][0][][] */ 79,103,104,-94,42,-78,25,-8,44,7,-76,5,-3,75,11,-80,-94,-42,45,-21,124,18,31,-80,37,-79,-41,40,7,3,-31,-40,60,68,-38,-103,63,51,-99,-45,-31,-18,-7,-28,-87,-79,-10,106,-3,-70,-29,34,0,98,-93,59,-63,11,-59,58,19,-71,46,-34,35,13,26,-55,-86,-23,94,29,12,-19,37,27,-92,23,32,74,-14,44,4,-76,52,-18,20,-70,-22,68,127,-106,-50,-1,19,33, 
  /* [22][0][][] */ 3,-68,-92,-108,52,-69,68,25,-96,49,-85,-112,66,-124,-127,-102,3,47,-95,-81,47,-57,-3,-3,79,-31,-127,55,-28,-91,-77,-114,18,22,-14,-12,-23,-35,-73,-121,-21,12,-27,51,16,-123,93,4,-75,-95,-18,-37,-80,-59,-65,-3,-33,-52,-41,-48,63,-92,-44,-118,-78,-14,-127,-69,63,59,-51,-28,-85,15,26,-105,7,-25,24,48,61,-105,-94,-121,87,80,60,-58,-78,-3,-80,24,-6,2,-48,56, 
  /* [23][0][][] */ 62,-82,26,44,75,-112,-5,-79,75,-7,53,49,19,-54,25,-43,41,-45,-55,81,98,-22,79,-53,17,38,57,8,86,73,59,-47,27,39,40,48,104,29,-57,-18,-61,-11,-22,-102,-41,-89,127,15,35,-45,-57,-74,53,18,-24,83,-45,-36,68,13,-112,-70,16,6,23,34,-87,-90,53,-29,108,-65,-4,-1,-31,-81,17,-8,81,96,-46,-34,42,-68,63,68,86,16,-7,94,113,-19,104,-25,-42,102, 
  /* [24][0][][] */ -64,-25,-88,-71,-75,-89,-50,-74,13,50,63,9,76,26,-44,-77,-56,23,-17,-62,53,-100,-48,-36,-10,-63,48,48,84,37,-6,-47,-43,1,24,-1,-82,-105,34,-17,-92,-60,77,0,-3,-25,-6,62,-102,-46,-48,18,49,15,34,-67,-41,56,12,11,72,-18,12,68,-91,67,-39,-64,-86,13,-74,-51,-36,-10,76,72,54,-92,-89,-52,-68,-82,-85,-126,16,20,-27,-85,-8,-127,-3,-68,-40,12,-108,-17, 
  /* [25][0][][] */ -100,-74,-94,-34,57,-88,-115,22,16,-122,-59,-5,39,-25,-121,-44,-89,29,47,-121,35,50,-35,-76,50,-70,-115,9,42,-104,10,76,58,-121,14,39,62,-78,-45,-40,-98,61,-117,-22,63,12,33,7,-116,56,-87,-22,14,-36,-80,-15,-43,21,-119,41,80,13,21,15,-24,42,-40,-31,-104,-30,-46,-124,6,-124,38,-5,38,94,-11,-6,19,19,-67,47,-91,-36,-115,-104,-43,-58,68,-5,-127,-37,-42,-96, 
  /* [26][0][][] */ 61,-125,-46,16,-78,17,5,0,-94,-91,112,70,-72,-26,29,-32,96,47,-55,-36,20,99,86,-2,54,81,1,27,-14,-15,-68,22,-39,-48,-79,-68,-24,88,-53,91,-63,76,84,22,-51,60,-6,70,-1,58,16,111,2,-69,23,-106,109,64,45,17,-9,-102,92,-3,116,-23,-63,40,-71,107,86,113,66,-86,-91,7,23,-72,-60,-7,-17,85,112,-34,53,-33,-17,-10,-70,127,3,15,-28,127,68,93, 
  /* [27][0][][] */ -11,-14,-80,-112,-127,-80,-82,-37,83,68,11,-118,-46,29,52,-49,54,-35,34,-86,-97,-13,-34,-49,-57,20,-120,-18,34,2,-51,-29,51,40,-103,-97,-69,-64,-122,51,-106,0,3,-11,88,2,37,91,76,41,63,-34,-103,-78,-28,-54,70,-44,-99,-91,-31,-80,-52,25,14,-63,-122,72,22,-10,-124,-14,32,-22,-30,-100,87,-48,59,102,53,-39,80,-48,-88,-45,-52,22,-65,3,-54,-68,29,1,118,92, 
  /* [28][0][][] */ 53,-27,52,14,-125,-81,-110,-92,-57,-127,27,36,-95,-100,-29,64,57,72,-90,40,-48,-4,-118,-90,-99,40,-98,-77,-88,-91,-27,-42,-116,-11,45,30,17,-118,-61,3,61,13,-107,20,-118,-32,-13,18,-3,-88,-88,-54,-99,-4,14,10,17,-35,46,21,-31,-62,-108,-20,22,39,-43,46,-95,-2,-116,-70,37,32,-29,-111,-125,-55,-99,15,-90,-108,70,-21,29,-122,33,-69,-115,-58,-56,-83,-68,13,-74,-85, 
  /* [29][0][][] */ 55,71,69,-60,-64,32,-87,27,62,-31,-62,-44,112,-101,-33,-20,-67,109,4,-73,-80,-56,51,27,-75,-14,-27,-6,-76,9,99,18,20,18,-72,-80,-46,61,-10,109,27,121,-49,93,-8,110,-60,0,21,-45,40,-63,75,-95,76,52,-116,69,-47,124,-88,105,-102,-51,-54,-40,71,105,103,-107,16,-92,112,66,74,36,127,-88,-39,46,1,-70,-42,-103,82,63,36,90,-55,41,69,92,-110,25,-30,20, 
  /* [30][0][][] */ 2,-59,-62,17,-95,6,-65,-12,84,-33,-10,-38,-114,-6,32,10,-17,17,71,-100,14,-107,-105,7,-102,3,-73,99,-17,-99,-92,-15,-96,-87,-127,-67,14,-17,-3,20,77,-69,-19,84,75,-61,86,56,-67,45,9,-95,84,-50,-21,77,-87,-61,-74,-61,-100,-10,-73,-28,-104,-102,-92,65,-73,92,20,-47,-87,99,34,-83,-72,-65,-76,-59,19,4,-95,-20,-99,19,-101,99,-34,-105,55,42,-51,-18,-6,-66, 
  /* [31][0][][] */ 73,-54,34,74,41,54,-29,-59,-41,-20,-47,-58,87,-89,-27,103,-33,-54,10,39,44,-8,-16,91,-19,-92,39,44,-47,-45,35,95,-20,29,-65,-26,55,-73,-47,-66,24,-39,-15,41,17,-32,-47,30,61,20,45,-79,-78,-65,-75,23,-127,68,12,104,-15,6,37,-50,50,95,-21,-41,62,-87,-93,9,-62,-82,21,8,-29,-84,52,85,-51,-49,15,20,64,36,-67,20,2,-66,-60,-30,-11,76,-18,-62, 
};
const TfArray<4, int> tensor_dimension5 = { 4, { 32,1,1,96 } };
const TfArray<32, float> quant5_scale = { 32, { 0.0025904015637934208, 0.0018739998340606689, 0.0022347741760313511, 0.002495716093108058, 0.0024393605999648571, 0.0024741997476667166, 0.0021820170804858208, 0.0024612410925328732, 0.0021494294051080942, 0.0028840287122875452, 0.0022351497318595648, 0.0022580416407436132, 0.0022952738218009472, 0.0024257746990770102, 0.0023774506989866495, 0.002772635780274868, 0.0019778981804847717, 0.0020724891219288111, 0.0020179017446935177, 0.0021267642732709646, 0.0022702710703015327, 0.0026128331664949656, 0.0021922178566455841, 0.0023121500853449106, 0.0024327926803380251, 0.0020825194660574198, 0.0020312420092523098, 0.0020453811157494783, 0.0020876363851130009, 0.0019838486332446337, 0.0019913034047931433, 0.0024226824752986431, } };
const TfLiteAffineQuantization quant5 = { (TfLiteFloatArray*)&quant5_scale, (TfLiteIntArray*)&g0::quant4_zero, 0 };
const MODEL_SECTION(EI_MODEL_SECTION) ALIGN(16) int32_t tensor_data6[96] = { 1213, -373, 3053, 4619, 3790, -1526, 3271, -1501, -2828, -751, 4401, -3378, 2854, 4854, 2221, 2432, -624, -349, -1883, 4754, 1930, -237, 2659, -394, -579, 2230, 1040, 1645, 3918, 2120, 4210, 1053, 1052, 4193, 4374, 3369, -259, 3681, 2668, -3486, -457, 1143, 190, 1520, -1254, 452, -1498, 527, -5453, 1329, 1489, -2670, 5415, -1593, 1502, 998, 1092, 2371, -506, -2421, -174, 1295, 118, 3567, 7039, 2951, 2716, 2871, 3652, -1082, 2196, 4364, 3570, -1913, 5909, 6167, 395, -2906, 543, 872, 7134, 1321, -405, -2950, 591, 531, 931, -1750, 5112, -531, 3273, 890, 96, -2981, -204, 1763, };
const TfArray<1, int> tensor_dimension6 = { 1, { 96 } };
const TfArray<96, float> quant6_scale = { 96, { 0.00015158011228777468, 0.00027841917471960187, 0.00018591723346617073, 0.00015191984130069613, 0.0001381315232720226, 0.00023073023476172239, 0.00017161364667117596, 0.00018449714116286486, 0.00016344420146197081, 0.0002423133555566892, 0.00014084632857702672, 0.00014697643928229809, 0.00019135839829687029, 0.00010645994188962504, 0.00013724362361244857, 0.00015860427811276168, 0.00025722934515215456, 0.00026356423040851951, 0.00019476639863569289, 0.00012848837650381029, 0.00020888837752863765, 0.00021587655646726489, 0.00013322403538040817, 0.00023670034715905786, 0.00026136354426853359, 0.00027457464602775872, 0.00026849340065382421, 0.00018555826682131737, 0.00017000868683680892, 0.00019544964015949517, 0.00012659979984164238, 0.00015872812946327031, 0.000308116344967857, 0.00015810440527275205, 0.0001400065521011129, 0.00012571366096381098, 0.00024084761389531195, 0.00012723916734103113, 0.0001530033623566851, 0.00014146209286991507, 0.00027233676519244909, 0.00016527296975255013, 0.00021065512555651367, 0.00019040597544517368, 0.00020706783107016236, 0.0002027746377279982, 0.00018751509196590632, 0.00021786050638183951, 0.000128531115478836, 0.00017347079119645059, 0.0001690048084128648, 0.00017400464275851846, 0.00013290098286233842, 0.00016687024617567658, 0.00021908878989052027, 0.00023888390569481999, 0.00019869873358402401, 0.00015698095376137644, 0.00022090194397605956, 0.00013857916928827763, 0.00023421295918524265, 0.00019881477055605501, 0.00021964733605273068, 0.00015792327758390456, 9.4104994786903262e-05, 0.0001558153162477538, 0.00014644824841525406, 0.00024433949147351086, 0.00018428223847877234, 0.000153913046233356, 0.00020264201157260686, 0.0001689362688921392, 0.00012410762428771704, 0.00014010972518008202, 0.00011567906767595559, 0.00012637670442927629, 0.00015477619308512658, 0.00019543229427654296, 0.00018666344112716615, 0.00015989580424502492, 0.00010551404557190835, 0.00015784193237777799, 0.00021759043738711625, 0.00017215724801644683, 0.00015918764984235168, 0.00016980596410576254, 0.00017637973360251635, 0.00021114513219799846, 0.000120558324852027, 0.00018736097263172269, 0.00017527071759104729, 0.00024810238392092288, 0.00021449995983857661, 0.00015412372886203229, 0.00027383901760913432, 0.00017396843759343028, } };
const TfArray<96, int> quant6_zero = { 96, { 0,0,0,0,0,0,0,0,0,0,0,0,0,0,0,0,0,0,0,0,0,0,0,0,0,0,0,0,0,0,0,0,0,0,0,0,0,0,0,0,0,0,0,0,0,0,0,0,0,0,0,0,0,0,0,0,0,0,0,0,0,0,0,0,0,0,0,0,0,0,0,0,0,0,0,0,0,0,0,0,0,0,0,0,0,0,0,0,0,0,0,0,0,0,0,0 } };
const TfLiteAffineQuantization quant6 = { (TfLiteFloatArray*)&quant6_scale, (TfLiteIntArray*)&quant6_zero, 0 };
const MODEL_SECTION(EI_MODEL_SECTION) ALIGN(16) int8_t tensor_data7[96*1*1*16] = { 
  /* [0][0][][] */ -32,86,-98,23,71,-44,121,83,-58,-5,36,-86,68,127,-78,21, 
  /* [1][0][][] */ -9,6,-41,-9,8,56,4,-127,38,-35,-23,-51,9,-50,-31,-6, 
  /* [2][0][][] */ -44,-41,25,69,39,41,-121,127,-36,-9,80,-59,-19,-91,-46,76, 
  /* [3][0][][] */ 72,-78,72,4,-11,-40,-19,127,-10,60,49,36,-10,69,11,-8, 
  /* [4][0][][] */ -53,-28,-5,50,-57,37,-41,-127,-15,-17,13,-27,50,23,89,105, 
  /* [5][0][][] */ 127,23,-34,-41,-86,0,28,79,31,-18,55,100,97,40,-83,-8, 
  /* [6][0][][] */ 4,-19,-42,-36,-93,11,8,-31,-32,-34,-33,16,95,71,127,-17, 
  /* [7][0][][] */ -44,40,-40,-62,4,-42,-67,7,-102,51,-63,-73,-127,-29,37,85, 
  /* [8][0][][] */ 39,43,83,22,77,30,81,25,80,-30,30,0,-127,-40,-91,3, 
  /* [9][0][][] */ -42,84,45,-45,-26,0,19,-29,-26,66,-50,6,60,127,41,23, 
  /* [10][0][][] */ 91,65,-29,69,-48,-18,47,-62,-58,-20,-67,-113,-127,-63,15,83, 
  /* [11][0][][] */ 69,16,72,5,-26,-42,-1,127,-99,40,-48,-9,-35,13,82,122, 
  /* [12][0][][] */ -34,-23,-11,-10,30,-7,127,31,-58,13,9,-23,-3,64,-41,93, 
  /* [13][0][][] */ 3,55,25,68,73,48,106,93,5,127,-61,-55,6,101,-71,-65, 
  /* [14][0][][] */ -111,110,-17,-34,-13,-9,88,32,-51,18,127,5,-120,57,-34,42, 
  /* [15][0][][] */ -26,-9,-127,-61,76,-60,-95,-46,-15,-13,-22,-75,-17,-94,-71,49, 
  /* [16][0][][] */ 118,-9,3,-12,15,-45,51,-7,-17,11,127,52,27,21,-29,-1, 
  /* [17][0][][] */ 26,8,-43,-91,-1,-52,112,-127,-7,-29,-37,44,42,69,0,60, 
  /* [18][0][][] */ 18,119,7,-67,80,-73,-31,-46,-40,127,-31,-3,-22,27,-8,-43, 
  /* [19][0][][] */ -71,-127,94,-89,36,-119,34,-18,38,24,82,102,7,3,39,-34, 
  /* [20][0][][] */ -33,87,48,5,25,7,31,-6,60,-8,85,-27,-127,-23,-80,-15, 
  /* [21][0][][] */ -46,20,3,24,72,33,70,44,-127,34,-44,33,-5,3,-73,-3, 
  /* [22][0][][] */ 11,-102,34,25,35,-126,127,4,11,-66,-43,-80,41,-82,-59,-56, 
  /* [23][0][][] */ -46,-112,30,55,36,-33,10,-42,11,-49,68,17,-7,62,66,127, 
  /* [24][0][][] */ 0,-4,25,87,48,33,-65,-127,56,23,-36,25,-3,4,-21,-17, 
  /* [25][0][][] */ -17,24,22,-33,-17,1,24,-14,-28,60,-42,-12,48,127,-4,12, 
  /* [26][0][][] */ -63,66,-1,27,43,-61,5,-30,6,13,12,72,25,-15,-80,127, 
  /* [27][0][][] */ -29,-126,-49,15,-72,93,10,-55,31,-32,58,-38,22,-39,-127,-35, 
  /* [28][0][][] */ -29,15,51,93,19,18,-49,-127,-116,60,90,-30,89,20,-34,-40, 
  /* [29][0][][] */ -127,111,-28,-30,-15,33,-123,-83,-51,-43,2,-4,28,-80,-100,69, 
  /* [30][0][][] */ 74,71,-71,90,-98,-105,-71,-4,-54,-17,10,-117,127,34,-11,104, 
  /* [31][0][][] */ 127,48,-51,-27,-68,41,94,28,-61,0,86,44,59,33,-11,33, 
  /* [32][0][][] */ -35,-11,127,7,-17,77,72,15,-12,-4,-6,19,17,63,34,55, 
  /* [33][0][][] */ 8,36,-55,-57,-35,4,101,50,19,9,22,-49,66,127,-29,7, 
  /* [34][0][][] */ -101,-12,127,20,16,-48,97,-5,-124,57,29,-59,64,80,-50,-51, 
  /* [35][0][][] */ 18,18,-39,29,-86,125,-50,-44,-28,127,-26,103,-90,74,22,11, 
  /* [36][0][][] */ -6,-68,127,-43,-52,18,-36,-12,20,28,-49,74,7,-69,-46,43, 
  /* [37][0][][] */ 93,-34,62,-39,127,-82,-54,44,-76,114,-69,-5,-111,-36,97,-24, 
  /* [38][0][][] */ 46,38,6,-75,10,-42,-69,57,-89,51,-90,-51,-41,-127,-97,73, 
  /* [39][0][][] */ -76,10,-75,-52,-73,-89,69,11,-127,-47,36,92,22,-8,-10,66, 
  /* [40][0][][] */ 127,25,22,-70,-53,36,2,-65,-25,-18,-59,-92,28,24,53,3, 
  /* [41][0][][] */ 113,-79,-58,-65,-30,-23,-93,-15,86,-11,-8,-81,127,-78,85,-51, 
  /* [42][0][][] */ -1,-98,-66,127,-10,-116,-98,24,11,-3,15,62,-109,103,-59,1, 
  /* [43][0][][] */ -76,-55,-56,-105,-45,5,-8,77,29,-127,-27,44,-13,-40,-19,99, 
  /* [44][0][][] */ -53,4,55,-17,-9,-24,51,122,119,-56,57,84,127,24,-46,-4, 
  /* [45][0][][] */ 52,75,-109,112,127,-100,-20,-51,107,-89,89,-58,-37,33,-81,78, 
  /* [46][0][][] */ -23,-45,-1,4,112,-23,53,10,-4,121,-43,-127,48,44,-55,73, 
  /* [47][0][][] */ 70,-30,-21,-16,63,-15,-45,-59,5,127,-35,23,-13,-86,-66,3, 
  /* [48][0][][] */ 12,17,-13,-108,-16,-77,127,-102,16,5,-30,51,40,67,-12,40, 
  /* [49][0][][] */ -36,127,-40,28,59,-33,71,62,-16,38,30,-80,-9,62,92,-81, 
  /* [50][0][][] */ 25,32,-29,-5,-127,-7,-60,-48,46,60,35,35,-45,-31,0,36, 
  /* [51][0][][] */ 127,-38,-60,-5,-51,73,-77,-32,34,-25,-30,68,-43,-48,0,22, 
  /* [52][0][][] */ 1,-51,48,59,-55,-117,-127,-13,-12,-49,-39,-51,-12,-36,14,40, 
  /* [53][0][][] */ 34,114,72,-104,38,127,89,-10,6,-9,-30,-63,73,-104,12,29, 
  /* [54][0][][] */ 50,106,-9,-24,-11,-86,-90,43,2,-30,-27,127,63,95,14,62, 
  /* [55][0][][] */ -42,-21,41,6,61,-24,84,60,-83,-20,19,15,127,24,-4,5, 
  /* [56][0][][] */ 127,12,-6,29,-56,91,-50,-71,-29,30,-68,16,-72,107,-20,28, 
  /* [57][0][][] */ -58,-45,-76,-52,-66,-109,82,-32,-127,-35,73,49,7,35,-9,56, 
  /* [58][0][][] */ 33,-62,63,13,-5,-71,-28,18,29,-28,-127,-12,11,-20,-30,34, 
  /* [59][0][][] */ 86,20,-114,99,-6,22,81,-16,-49,-34,20,-103,-127,-37,38,82, 
  /* [60][0][][] */ 9,38,5,34,-2,-13,-38,-16,-23,-63,45,122,-47,-127,-14,-19, 
  /* [61][0][][] */ -20,-1,58,-105,-53,38,5,102,-29,-115,66,80,74,-17,5,127, 
  /* [62][0][][] */ 58,34,-9,-127,1,2,2,-51,-16,18,-53,39,37,-34,-95,-79, 
  /* [63][0][][] */ -12,-20,17,12,-45,-47,-62,-7,-48,9,-51,-41,127,-12,45,-17, 
  /* [64][0][][] */ 44,-15,-35,41,-127,-65,-38,-119,52,111,42,13,24,-48,-51,123, 
  /* [65][0][][] */ -23,-1,-29,-11,-57,65,38,-29,44,-118,87,-57,68,52,-127,54, 
  /* [66][0][][] */ -107,61,-103,-104,25,-50,-82,-39,-94,78,84,17,-127,-36,11,48, 
  /* [67][0][][] */ 3,-37,-127,-104,66,68,-1,-45,-30,-12,44,-17,22,24,21,46, 
  /* [68][0][][] */ 64,11,-27,-52,-56,25,24,26,-70,52,127,-5,-30,-52,-102,8, 
  /* [69][0][][] */ 93,-121,47,-35,10,-121,-48,127,1,53,78,99,-54,89,-24,-15, 
  /* [70][0][][] */ 61,14,83,48,93,-8,127,0,1,27,-62,19,-42,74,-93,50, 
  /* [71][0][][] */ 18,13,74,-67,-127,-87,6,20,-27,-21,31,-80,-85,16,2,26, 
  /* [72][0][][] */ -65,-113,17,-126,96,-16,-2,24,-72,-1,-127,-10,73,97,-63,124, 
  /* [73][0][][] */ 29,15,53,-5,126,-109,-64,-8,-28,81,-116,44,-102,-61,127,-38, 
  /* [74][0][][] */ -88,-3,-127,-60,85,-18,-38,13,-97,-3,-114,-32,-12,-84,-21,90, 
  /* [75][0][][] */ 108,-40,43,-64,17,14,-127,-23,-11,-118,73,12,-9,-6,-19,-12, 
  /* [76][0][][] */ 28,-31,-18,127,15,106,107,-73,95,-96,65,106,19,-59,-57,18, 
  /* [77][0][][] */ -26,-21,125,4,23,-18,-30,-127,0,33,45,85,53,48,35,6, 
  /* [78][0][][] */ -25,15,26,-48,-7,-50,39,-21,33,-2,15,-98,-90,-69,-127,-53, 
  /* [79][0][][] */ -107,-49,1,17,127,59,-26,-8,41,47,-37,25,-52,-56,-42,-38, 
  /* [80][0][][] */ -25,-127,68,126,-15,-3,-120,38,14,40,48,-17,-63,-31,-29,77, 
  /* [81][0][][] */ 127,75,1,86,-20,27,7,105,35,27,88,31,90,39,72,-36, 
  /* [82][0][][] */ -73,-7,7,-24,27,-127,-105,-76,11,65,-49,-26,-34,96,-88,-27, 
  /* [83][0][][] */ 80,-13,89,-35,-21,-25,-127,-25,34,-92,-5,-59,-1,-24,2,-37, 
  /* [84][0][][] */ 4,-41,-64,46,127,54,44,40,-95,36,-109,-37,27,-14,-47,-7, 
  /* [85][0][][] */ 1,72,21,-26,114,8,67,-122,127,-44,38,-18,106,-94,2,3, 
  /* [86][0][][] */ 97,-31,127,53,16,-38,68,21,-55,-39,-94,-58,46,3,-66,1, 
  /* [87][0][][] */ -25,2,5,-62,66,-23,-34,23,21,-47,74,-31,-77,-127,2,33, 
  /* [88][0][][] */ -80,-50,33,-4,27,21,-76,-74,-5,0,-107,-127,-62,-58,-31,-19, 
  /* [89][0][][] */ -68,18,34,-63,30,11,-127,11,90,31,-74,-12,-4,-67,-33,-27, 
  /* [90][0][][] */ -21,-24,-32,-63,127,15,-41,37,45,34,13,-7,33,10,-74,-22, 
  /* [91][0][][] */ -22,-73,-2,33,-27,-20,-34,49,-47,-65,38,-26,-23,45,19,127, 
  /* [92][0][][] */ -9,55,-11,-14,-23,43,-91,52,-33,-16,57,12,-41,127,40,6, 
  /* [93][0][][] */ 1,75,-44,-69,52,84,-64,12,78,67,61,49,-127,41,-39,60, 
  /* [94][0][][] */ 36,53,77,9,-127,-40,12,-5,14,-30,32,-8,-70,-5,1,-27, 
  /* [95][0][][] */ -25,0,29,-34,127,-38,-110,103,-19,-19,-90,111,-22,18,72,-40, 
};
const TfArray<4, int> tensor_dimension7 = { 4, { 96,1,1,16 } };
const TfArray<96, float> quant7_scale = { 96, { 0.001441710046492517, 0.002648102818056941, 0.001768297515809536, 0.0014449412701651454, 0.0013137976638972759, 0.0021945233456790447, 0.0016322530573233962, 0.0017547906609252095, 0.0015545517671853304, 0.0023046927526593208, 0.0013396186986938119, 0.001397923449985683, 0.0018200495978817344, 0.0010125626577064395, 0.0013053526636213064, 0.0015085182385519147, 0.0024465618189424276, 0.0025068141985684633, 0.001852463698014617, 0.0012220797361806035, 0.0019867809023708105, 0.002053246833384037, 0.0012671215226873755, 0.0022513063158839941, 0.0024858829565346241, 0.0026115365326404572, 0.0025536965113133192, 0.0017648832872509956, 0.0016169879818335176, 0.0018589622341096401, 0.0012041170848533511, 0.0015096962451934814, 0.0029305587522685528, 0.0015037639532238245, 0.0013316314434632659, 0.0011956887319684029, 0.0022907517850399017, 0.0012101982720196247, 0.001455246820114553, 0.0013454754371196032, 0.0025902516208589077, 0.0015719456132501364, 0.0020035847555845976, 0.0018109908560290933, 0.0019694652874022722, 0.001928631798364222, 0.001783495070412755, 0.0020721165928989649, 0.0012224861420691013, 0.001649916754104197, 0.0016074399463832378, 0.0016549944411963224, 0.0012640489730983973, 0.0015871376963332295, 0.0020837991032749414, 0.0022720745764672756, 0.0018898650305345654, 0.0014930785400792956, 0.0021010444033890963, 0.0013180553214624524, 0.0022276481613516808, 0.0018909686477854848, 0.0020891116000711918, 0.0015020411228761077, 0.0008950522169470787, 0.0014819919597357512, 0.0013928997796028852, 0.0023239636793732643, 0.001752746757119894, 0.0014638990396633744, 0.0019273703219369054, 0.001606788020581007, 0.0011804134119302034, 0.0013326127082109451, 0.0011002477258443832, 0.0012019951827824116, 0.0014721086481586099, 0.0018587972735986114, 0.0017753948923200369, 0.001520802266895771, 0.001003566081635654, 0.0015012674266472459, 0.0020695480052381754, 0.0016374234110116959, 0.0015140668256208301, 0.0016150599112734199, 0.0016775843687355518, 0.0020082453265786171, 0.0011466552969068289, 0.0017820291686803102, 0.0016670363256707788, 0.0023597534745931625, 0.0020401538349688053, 0.0014659028965979815, 0.0026045399717986584, 0.0016546499682590365, } };
const TfLiteAffineQuantization quant7 = { (TfLiteFloatArray*)&quant7_scale, (TfLiteIntArray*)&g0::quant6_zero, 0 };
const MODEL_SECTION(EI_MODEL_SECTION) ALIGN(16) int32_t tensor_data8[16] = { 7681, 16605, -3659, -708, -2599, 4336, -4666, 9242, 16769, -6243, -3197, 12216, -16865, 17049, -35, 12277, };
const TfArray<1, int> tensor_dimension8 = { 1, { 16 } };
const TfArray<16, float> quant8_scale = { 16, { 5.0813821871997789e-05, 5.8462730521569028e-05, 6.5481079218443483e-05, 5.976008833386004e-05, 4.844133582082577e-05, 6.5636202634777874e-05, 4.6270677557913586e-05, 4.8964924644678831e-05, 7.4983880040235817e-05, 7.7770841016899794e-05, 3.6745772376889363e-05, 5.7978228142019361e-05, 6.6136533860117197e-05, 6.6726854129228741e-05, 8.3917067968286574e-05, 6.7092216340824962e-05, } };
const TfArray<16, int> quant8_zero = { 16, { 0,0,0,0,0,0,0,0,0,0,0,0,0,0,0,0 } };
const TfLiteAffineQuantization quant8 = { (TfLiteFloatArray*)&quant8_scale, (TfLiteIntArray*)&quant8_zero, 0 };
const MODEL_SECTION(EI_MODEL_SECTION) ALIGN(16) int8_t tensor_data9[16*1*1*96] = { 
  /* [0][0][][] */ -83,42,57,-25,-75,0,-49,-29,-33,14,-9,-10,47,28,35,-18,23,-15,78,15,-5,-25,127,74,54,10,10,14,-68,-98,-80,-6,-33,-58,12,9,24,23,10,12,-13,3,-57,13,-59,-21,-12,91,-36,9,-34,-24,-20,7,2,-41,-81,3,-18,61,52,34,-13,24,-40,-43,-35,33,-53,-50,-5,-3,18,5,-49,-34,-57,15,-10,24,-43,52,84,-74,-15,41,25,64,28,-7,2,-26,-41,-40,-42,-1, 
  /* [1][0][][] */ 46,1,29,-69,-65,-31,-19,32,-14,19,56,-60,-1,-18,-70,-35,-14,3,-61,33,-1,-80,-7,57,-5,-72,-7,-41,69,-114,117,-71,55,21,-4,71,44,89,-41,-45,50,20,-5,-5,16,44,-127,-45,-56,-59,-25,-17,47,-56,-37,53,18,18,-31,41,38,34,-27,-117,13,-18,-68,-12,-20,-29,-69,-40,-40,-27,45,-95,23,49,13,-91,-25,-25,-105,-22,15,-45,-46,15,-74,-15,-80,65,38,90,-80,67, 
  /* [2][0][][] */ 92,-42,33,7,34,-87,55,7,3,-4,-23,-7,-84,-28,27,-30,-78,-41,-27,38,5,-61,-39,20,-4,-68,-5,-20,-10,77,-31,124,-59,127,-12,16,-11,-36,-21,2,-111,65,64,33,-75,7,-22,-25,38,-13,-49,-39,56,-17,-18,51,45,-3,58,-5,15,30,-17,5,62,15,-9,3,40,35,-35,18,27,25,48,28,25,-74,54,53,81,-14,-40,21,-65,25,15,61,20,-16,-34,29,-58,47,5,56, 
  /* [3][0][][] */ 13,-9,-29,13,1,-13,-6,-56,1,81,51,60,44,-2,-62,65,-5,-49,26,31,3,127,52,-41,23,15,-14,-7,58,-11,58,-15,-16,49,-40,-36,37,63,46,0,-93,-18,-26,41,-25,44,15,17,-42,-45,5,-22,29,-99,-38,-33,36,91,-29,-6,5,-2,-46,0,31,46,-58,14,-38,11,-1,-65,-22,-37,41,-4,1,7,-31,-17,-13,-14,-44,10,-8,-30,41,-11,17,28,35,-20,33,27,-52,59, 
  /* [4][0][][] */ 32,3,-75,38,19,22,-51,36,-30,90,125,-32,-10,28,-20,-63,-8,-18,-65,63,16,-83,39,101,-90,-9,-127,3,-45,-69,-4,7,-61,-42,7,72,10,45,45,37,-52,-33,62,-11,9,37,-52,33,-33,86,36,12,53,-32,-73,14,30,-5,-15,-32,75,14,61,-20,-67,6,-63,17,-68,38,-57,71,59,-51,-34,-33,29,-43,-13,-8,-52,82,-81,28,4,44,60,-84,75,23,47,30,-73,-26,26,25, 
  /* [5][0][][] */ -86,40,28,7,36,-23,42,-11,-19,60,9,-9,27,-8,-25,-25,-26,-38,41,32,-111,-39,-72,28,-34,5,63,-1,50,-46,14,56,59,127,-18,41,-16,33,53,-1,-52,97,84,-4,18,74,63,-6,-16,27,-35,24,0,-58,33,-74,40,-51,-58,-61,82,107,-43,-39,92,-27,-101,-38,-76,-5,-59,-29,1,22,-41,-33,21,-32,-44,-9,121,-26,25,-76,-69,38,31,-20,-73,43,35,11,-28,36,-11,87, 
  /* [6][0][][] */ 42,-18,-95,33,-63,-114,91,106,-52,60,-3,95,-105,-64,41,71,-17,-57,22,27,-8,-29,-87,-29,-49,35,68,3,18,48,77,-43,41,7,17,-64,30,11,34,76,-1,9,-82,-9,15,-52,-59,46,51,-101,-27,56,49,-5,-4,-46,64,59,26,-2,-86,67,-84,-12,56,1,-13,68,16,41,7,-74,-50,46,118,40,38,-9,59,-70,-18,-65,-62,83,9,-55,67,37,-53,76,43,54,0,26,-47,127, 
  /* [7][0][][] */ 7,80,-29,-63,-7,-30,52,-5,-78,9,-61,-73,-54,1,27,-26,-27,-41,-42,33,11,127,-6,11,-26,5,10,36,35,18,78,-30,73,22,-5,-4,-13,-7,-1,18,-44,-24,-10,-63,15,-50,80,-43,52,-90,-94,-40,-28,26,-13,-31,-4,11,-113,18,-22,100,19,-18,-30,-4,-25,-2,-12,-28,-82,42,6,56,-53,34,-43,32,13,-82,-35,-31,40,-86,46,-37,-17,-14,8,85,-81,32,57,-58,-30,10, 
  /* [8][0][][] */ 3,92,-33,49,-39,-38,-102,7,-79,-18,-7,10,-37,31,40,104,4,-60,22,27,27,10,-10,3,-33,101,9,26,3,1,-55,-36,-33,-51,-43,-61,-33,11,46,29,8,-29,48,2,-47,-51,-17,-1,-38,-30,65,89,-15,-12,-77,124,-23,25,12,-44,-48,7,8,72,-23,-75,-30,-10,-36,11,-12,28,-52,-68,-116,-30,-52,39,-67,-59,-26,-10,-36,-21,-25,-3,34,40,16,40,-79,-10,-102,-127,45,-32, 
  /* [9][0][][] */ 4,15,-69,17,-38,-32,65,36,13,68,-7,98,-11,-13,19,127,17,-3,58,28,6,10,48,-78,-14,-11,33,-19,13,12,45,44,-22,2,-6,-109,41,-12,-16,-6,-20,33,53,3,-2,11,7,17,16,79,32,-13,-65,-78,-6,12,10,-13,67,-24,-45,60,-50,-12,74,-15,-13,22,-66,35,25,49,1,83,-10,-15,-28,29,-40,-6,52,-39,70,-4,20,-2,-29,-18,-47,24,3,8,43,40,-43,-1, 
  /* [10][0][][] */ 67,24,-33,-25,-32,-19,105,-25,-15,-30,-45,-34,-117,-41,23,-27,-63,-62,11,6,39,62,40,2,-55,97,58,6,-67,-125,-37,-30,79,-59,49,14,73,-107,83,121,47,-104,-18,-20,-35,-124,-8,83,22,83,-76,-49,-36,52,-1,36,33,-87,63,64,-35,40,-91,-3,-18,-60,45,44,43,-54,-17,60,127,27,26,-116,40,-70,83,7,-54,51,22,9,-56,-31,-6,55,-42,-22,16,41,64,69,-14,-4, 
  /* [11][0][][] */ -33,-26,66,-80,11,-22,-16,-62,39,-47,-14,5,-29,-21,2,19,-52,-20,64,13,-59,41,-61,-73,-6,12,-42,43,20,-57,49,-29,-4,-7,12,-30,-75,-14,-121,13,-82,60,-48,64,9,-6,-7,-39,6,-54,-38,-25,24,43,56,-56,-24,-73,-1,-53,-40,-44,-35,-95,14,-55,57,53,127,20,55,8,-49,-7,34,-50,76,8,48,63,41,-8,-30,88,67,-11,5,-12,-95,-68,-25,4,35,15,72,86, 
  /* [12][0][][] */ 32,-32,-20,-25,47,122,-23,75,36,57,11,56,-3,70,-2,-17,-75,65,23,43,125,-20,63,-83,27,31,-81,-73,-36,75,15,23,38,-18,22,-39,30,-14,-26,-25,26,-28,26,58,-19,50,10,-21,-56,59,-3,14,-7,-29,24,23,-53,62,23,62,45,-100,29,-127,13,107,-9,-47,-9,-56,86,-14,-5,16,-22,65,10,57,-92,-25,-32,31,123,22,23,75,-29,-90,61,19,-81,70,85,4,-24,-104, 
  /* [13][0][][] */ -11,18,11,-59,-24,-32,4,-53,10,-53,-47,-80,48,-122,-35,-80,2,-25,-77,-25,-89,-9,18,102,-34,12,81,19,26,-60,59,14,2,-4,-109,105,-35,-70,13,-76,127,-8,-18,7,-27,-104,70,-49,86,-27,-47,27,39,12,-29,54,59,-63,-57,1,28,31,3,-65,-7,25,-11,23,-56,-49,-71,-2,-62,5,-47,-101,-103,-12,43,87,-33,59,21,-101,33,49,26,-6,8,-16,-29,21,-38,-3,-9,-15, 
  /* [14][0][][] */ 14,11,-70,-17,67,67,-87,7,44,-35,77,3,18,-16,-22,-42,-73,27,35,127,0,-30,-3,3,2,34,-21,53,16,20,-22,24,50,11,-31,4,-7,46,58,26,36,16,48,20,-2,-35,52,-29,20,1,-9,-13,33,2,-37,41,5,56,-65,-16,-4,-54,-32,-95,24,-41,-56,10,-49,67,-18,45,8,-21,-21,-27,26,-6,-55,-14,22,15,12,-7,-18,59,-8,-17,-35,47,63,32,-18,-31,-52,-45, 
  /* [15][0][][] */ -81,-25,51,-63,28,-7,-23,-88,-28,-7,-23,42,-15,-39,44,67,-86,-6,3,-76,35,-9,5,-86,27,1,35,-28,-43,-115,-51,18,-45,41,85,-84,-24,-22,6,-44,5,-17,13,-42,-8,-19,61,87,-43,-21,10,-32,-28,69,7,-65,-86,-22,77,20,-45,-3,-80,43,-54,2,24,7,63,-75,87,-31,43,-46,-47,-58,23,10,47,7,-29,87,42,17,-2,-26,-127,-4,0,-51,-79,6,44,-44,-3,42, 
};
const TfArray<4, int> tensor_dimension9 = { 4, { 16,1,1,96 } };
const TfArray<16, float> quant9_scale = { 16, { 0.0021595873404294252, 0.0024846659507602453, 0.002782945754006505, 0.0025398037396371365, 0.0020587567705661058, 0.002789538586512208, 0.001966503681614995, 0.0020810093265026808, 0.0031868147198110819, 0.0033052607905119658, 0.0015616952441632748, 0.0024640746414661407, 0.0028108025435358286, 0.0028358912095427513, 0.0035664753522723913, 0.0028514191508293152, } };
const TfLiteAffineQuantization quant9 = { (TfLiteFloatArray*)&quant9_scale, (TfLiteIntArray*)&g0::quant8_zero, 0 };
const MODEL_SECTION(EI_MODEL_SECTION) ALIGN(16) int32_t tensor_data10[96] = { -128, -847, -2428, -2947, -293, 660, 786, -795, 343, -1639, 7705, -3198, 2265, 9221, 5636, -4345, 14389, -123, -5127, 513, 716, 763, 2170, -2728, 449, -2871, 251, -4001, 1162, -6606, -1285, 162, 10104, -1734, -3053, -124, 318, -1341, -874, 6144, 188, 835, 621, -3725, 12060, 16572, -1538, 13367, -182, 11583, 9029, -2865, -359, -2258, -432, 8270, -425, -1236, 10510, 7784, 8627, 10128, 11066, -8379, 2526, 866, -2500, 2568, -3536, -1667, 2314, 516, 9544, 548, 794, 10193, -288, 497, 6570, -430, -537, 13300, -1436, 4701, 10218, 1025, -5077, -3911, 538, -3992, 13655, 40, 725, -305, -6231, -2456, };
const TfArray<96, float> quant10_scale = { 96, { 0.00028286268934607506, 0.00018060086586046964, 0.00012787301966454834, 0.00024631829001009464, 0.00027906367904506624, 0.00033401776454411447, 0.00031253838096745312, 0.00026086022262461483, 0.00036135554546490312, 0.00016254805086646229, 0.00013593568291980773, 0.00018293886387255043, 0.00024738250067457557, 0.00012766584404744208, 0.00015968552906997502, 0.00011832234304165468, 9.3766291684005409e-05, 0.00018044703756459057, 0.00013950408902019262, 8.6457097495440394e-05, 0.00019487222016323358, 0.00039449904579669237, 0.00026937620714306831, 0.00020428039715625346, 0.00092030642554163933, 0.00022627663565799594, 0.00026314062415622175, 0.00011829120194306597, 0.0001678810513112694, 0.00010653305071173236, 0.00034857154241763055, 0.00026871135924011469, 0.0001527736458228901, 0.00017291387484874576, 0.00026933828485198319, 0.0005036636721342802, 0.00021273521997500211, 0.00038241135189309716, 0.00037015730049461126, 0.00016026364755816758, 0.00022934623120818287, 0.00024044841120485216, 0.00028231408214196563, 0.00015182299830485135, 0.00010095833567902446, 7.6918935519643128e-05, 0.00023412231530528516, 0.00011108203761978075, 0.00019937635806854814, 7.4918527388945222e-05, 0.00015551777323707938, 0.0001547064894111827, 0.00019443641940597445, 0.00018363566778134555, 0.00021242615184746683, 0.0002012042241403833, 0.00019927708490286022, 0.00029039257788099349, 0.0001555012131575495, 0.00012576849258039147, 0.00013779944856651127, 0.00015597150195389986, 0.0001163216438726522, 8.6366133473347872e-05, 0.00017362557991873473, 0.0002932320348918438, 0.00027371928445063531, 0.00021427306637633592, 0.00021514634136110544, 0.00019941102073062211, 0.00021383519924711436, 0.00013072215369902551, 0.00012848718324676156, 0.00022951065329834819, 0.00030637896270491183, 0.0001255427923751995, 0.00015585649816785008, 0.00020381745707709342, 0.00018784198618959635, 0.00024626473896205425, 0.0002405913983238861, 0.00013609328016173095, 0.00023798467009328306, 0.00018084068142343313, 0.00010771634697448462, 0.00023100081307347864, 0.00015065840852912515, 0.00013123817916493863, 0.00029349752003327012, 0.00028617677162401378, 8.9875415142159909e-05, 0.00046146873501129448, 0.00024099773145280778, 0.00035783951170742512, 9.987383964471519e-05, 0.00041958256042562425, } };
const TfLiteAffineQuantization quant10 = { (TfLiteFloatArray*)&quant10_scale, (TfLiteIntArray*)&g0::quant6_zero, 0 };
const MODEL_SECTION(EI_MODEL_SECTION) ALIGN(16) int8_t tensor_data11[1*3*3*96] = { 
  /* [0][0][][] */ 28,125,30,-6,-36,11,66,44,37,-95,-87,63,-37,18,67,-66,-127,28,24,34,11,50,51,85,21,12,-44,-31,-49,50,35,-13,-7,22,-16,127,24,51,-1,-47,34,-43,-2,9,-63,-88,28,-12,-59,-127,16,6,-8,67,-28,26,-79,-43,-49,-127,-99,10,-126,15,-45,35,69,-13,-47,11,57,13,-10,-3,47,36,-13,-17,-61,29,8,-35,67,-66,-22,-69,-14,42,-127,6,-90,46,63,11,34,-1, -51,-24,-4,91,-3,102,-16,-3,23,48,-127,107,-55,-53,-127,113,-76,94,74,127,102,3,57,127,21,-10,-6,26,-17,127,2,-127,84,127,19,72,39,86,-31,-127,127,-19,82,93,-20,-125,127,-39,-17,-106,-94,-43,36,127,-11,-127,26,36,-127,-126,-58,-123,-69,99,-50,69,127,-16,6,127,127,-1,-50,10,-41,-127,6,-38,-31,127,2,-68,127,-111,-127,-39,94,84,114,99,-81,-7,127,-32,115,20, 24,-127,34,0,-19,-44,-34,54,2,82,-64,6,-27,34,54,-107,-54,34,19,44,15,39,39,117,13,-13,3,35,-3,40,0,-49,-23,-59,-14,88,-2,5,7,15,0,19,-22,79,-11,-79,13,24,17,-115,-1,33,1,18,34,-29,74,-53,-26,-41,-127,48,-91,28,51,27,5,2,-30,8,-3,-6,23,-54,-16,14,-4,14,-60,9,33,-50,51,-61,-44,-36,27,-19,-49,7,-6,19,39,21,-7,-23, 
  /* [0][1][][] */ 90,-7,76,77,10,-38,116,55,-22,-116,-102,127,-30,-127,-12,8,-63,-40,59,56,-127,-10,-127,-41,-8,55,-127,127,-75,37,127,81,34,85,30,88,-127,36,-20,-74,38,-127,23,59,-127,-127,10,-123,-113,-117,-127,-4,127,-24,97,4,-127,3,-37,-24,-38,-46,-38,86,-127,-20,78,-98,-46,17,-57,-92,-54,69,121,-44,105,55,-66,-47,127,-127,-32,111,-20,-15,31,127,29,3,-127,38,-11,-53,119,-13, -127,14,-84,127,-69,-127,-127,-127,50,25,-17,76,-102,-94,19,127,-109,-127,127,116,11,-127,-87,86,-127,127,-7,55,-108,-59,-82,87,-127,123,127,-61,-4,127,127,-71,-41,21,25,10,-72,-65,-51,-127,-5,-124,-75,127,25,73,46,-43,-3,10,105,-48,-9,-54,-127,127,-15,-127,54,127,50,27,-113,-45,-52,53,-127,-76,127,127,127,-62,-104,-13,-77,70,-88,-91,127,125,91,127,-108,-127,-116,-30,127,127, 44,-25,127,24,-5,-16,10,39,-32,127,-70,112,-4,5,-116,57,43,-26,-8,31,-122,-1,-70,-23,-27,3,118,-28,127,72,8,-96,-7,-123,0,82,-117,36,-38,-74,-3,75,20,127,0,40,0,-115,127,-74,-81,-15,24,-48,-127,45,67,0,-93,77,5,-20,-29,53,127,-36,14,-14,-54,11,-47,-34,-127,-127,-18,-45,-9,-8,-82,-55,-79,-99,-35,106,-85,19,33,5,-51,10,-23,52,-29,127,39,-6, 
  /* [0][2][][] */ 57,-110,10,-38,21,27,18,43,-54,-71,13,-64,-15,-10,-37,7,-41,58,5,74,6,22,3,0,22,38,5,24,-52,29,16,-5,-68,-39,-5,-19,13,-23,12,-8,-13,-1,6,-51,-52,-73,-1,-27,-35,32,-16,16,-4,27,-51,12,11,16,40,28,-73,-11,7,17,-61,36,-5,-20,44,31,-4,103,-1,18,14,-14,-44,-69,-14,14,26,-34,-19,-92,-7,25,-7,9,-57,24,35,14,-17,-9,20,-17, -33,27,105,-30,127,88,-41,1,-127,-26,-27,-51,127,-58,-48,37,-6,99,8,-41,43,-1,53,25,37,-93,-3,52,-34,80,-12,-13,-107,28,19,-30,74,38,34,-55,-16,-11,-127,-37,-39,-4,-28,-29,-15,-49,-5,59,105,-36,-50,-80,-24,127,2,-18,67,-127,52,85,-32,43,-22,0,127,19,5,127,-111,20,-38,-82,-1,-115,5,-18,-8,-62,-49,-127,-13,127,60,13,65,7,96,34,-29,-21,52,-2, 19,81,8,-11,-3,10,-32,32,18,27,50,23,-23,-26,16,78,-51,-1,8,31,-14,28,18,15,-8,51,22,52,-3,27,-38,-110,-32,-10,-10,-47,21,-44,0,23,-10,-12,5,18,-53,-29,-6,-34,22,37,-5,14,19,10,11,20,-2,23,42,72,-18,27,1,-2,40,32,-20,-27,35,-6,-14,103,11,-16,-18,-14,-10,-49,-36,25,-2,-62,0,-68,-13,27,-17,-20,-104,-3,-13,12,-12,-4,-20,-12, 
};
const TfArray<4, int> tensor_dimension11 = { 4, { 1,3,3,96 } };
const TfArray<96, float> quant11_scale = { 96, { 0.012021664530038834, 0.0076755369082093239, 0.005434602964669466, 0.010468527674674988, 0.011860206723213196, 0.014195754192769527, 0.013282881118357182, 0.011086558923125267, 0.015357610769569874, 0.0069082919508218765, 0.0057772663421928883, 0.0077749015763401985, 0.010513755492866039, 0.0054257982410490513, 0.0067866351455450058, 0.0050286995247006416, 0.0039850673638284206, 0.0076689990237355232, 0.0059289233759045601, 0.003674426581710577, 0.0082820691168308258, 0.016766209155321121, 0.01144848857074976, 0.008681916631758213, 0.03911302238702774, 0.0096167568117380142, 0.011183476075530052, 0.005027376115322113, 0.0071349446661770344, 0.0045276544988155365, 0.014814290218055248, 0.011420232243835926, 0.0064928797073662281, 0.0073488396592438221, 0.0114468764513731, 0.021405706182122231, 0.0090412469580769539, 0.016252482309937477, 0.015731684863567352, 0.006811204832047224, 0.0097472146153450012, 0.010219057090580463, 0.01199834793806076, 0.0064524770714342594, 0.0042907292954623699, 0.0032690546941012144, 0.009950198233127594, 0.0047209863550961018, 0.0084734950214624405, 0.0031840372830629349, 0.0066095050424337387, 0.0065750256180763245, 0.0082635479047894478, 0.0078045157715678215, 0.0090281115844845772, 0.0085511794313788414, 0.0084692761301994324, 0.012341683730483055, 0.0066088014282286167, 0.0053451606072485447, 0.0058564762584865093, 0.0066287890076637268, 0.0049436697736382484, 0.0036705606617033482, 0.0073790871538221836, 0.01246236078441143, 0.011633069254457951, 0.0091066053137183189, 0.0091437194496393204, 0.0084749683737754822, 0.0090879956260323524, 0.005555691197514534, 0.005460705142468214, 0.0097542023286223412, 0.013021105900406837, 0.0053355684503912926, 0.0066239009611308575, 0.0086622415110468864, 0.0079832840710878372, 0.010466250590980053, 0.010225133970379829, 0.0057839644141495228, 0.010114348493516445, 0.0076857288368046284, 0.0045779445208609104, 0.0098175341263413429, 0.0064029823988676071, 0.0055776224471628666, 0.012473644688725471, 0.012162512168288231, 0.0038197052199393511, 0.019612420350313187, 0.010242403484880924, 0.015208179131150246, 0.0042446381412446499, 0.017832258716225624, } };
const TfLiteAffineQuantization quant11 = { (TfLiteFloatArray*)&quant11_scale, (TfLiteIntArray*)&g0::quant6_zero, 3 };
const MODEL_SECTION(EI_MODEL_SECTION) ALIGN(16) int32_t tensor_data12[96] = { 4879, 2807, 1274, -993, 6259, 6514, 7173, 1160, -43, 8554, 842, -4132, 3324, 2836, 404, -34, 2132, 4365, -775, 165, 4311, 6938, 8031, -1590, -3159, -961, 6800, -395, 1142, 1624, 7390, -1660, 8100, 2332, 4284, -4390, 791, -4684, -10, 1213, 2227, 1498, 1502, -712, 787, 1732, 2940, 4743, 4903, 2412, 4868, 1802, -2415, 1146, 741, 3138, 2052, 2291, 7457, 1028, -939, 4390, 3180, 2748, 4214, 5163, -3255, 2049, 5379, -272, 6669, 781, 2263, 3635, 4016, 2488, -63, 2492, 2025, 2104, 2108, 3170, 6709, 1269, 1387, 3590, 890, -992, 15726, -491, 774, -1039, 12301, 1752, -8, -745, };
const TfArray<96, float> quant12_scale = { 96, { 0.00013854268763680011, 0.00013738934649154544, 0.00015627799439243972, 0.00024370782193727791, 0.00011603590974118561, 0.00011539272964000702, 0.00011703591007972136, 0.00023409024288412184, 0.00012871064245700836, 9.7678210295271128e-05, 0.00023570474877487868, 0.0001324414333794266, 0.0001707735937088728, 0.00018414932128507644, 0.00024833454517647624, 0.00021310031297616661, 0.00025499434559606016, 0.00015837687533348799, 0.00016410469834227115, 0.00025562007795087993, 0.00015444331802427769, 0.00012311042519286275, 0.00011457464279374108, 0.00018165518122259527, 0.00018323559197597206, 0.00020788860274478793, 0.00011736738088075072, 0.00013245648005977273, 0.00024026886967476457, 0.00012791271728929132, 0.00010483570804353803, 0.000173502805409953, 9.8940297903027385e-05, 0.00020361747010610998, 0.00015109276864677668, 0.00014472962357103825, 0.00021710827422793955, 0.00012648210395127535, 0.00019196188077330589, 0.00025579560315236449, 0.000195793152670376, 0.00021234838641248643, 0.00025013415142893791, 0.00023363165382761508, 0.00027519447030499578, 0.00021670313435606658, 0.00018130555690731853, 0.00013375686830841005, 0.00014235575508791953, 0.00020306895021349192, 0.00015014076780062169, 0.0002048248570645228, 0.00015036624972708523, 0.00023606268223375082, 0.00029149258625693619, 0.00015001637802924961, 0.00019582791719585657, 0.00015461174189113081, 0.00010501126962481067, 0.00021873463992960751, 0.00021167990053072572, 0.00015141301264520735, 0.00017298573220614344, 0.000198110326891765, 0.00014268366794567555, 0.00013354072871152312, 0.00017146531899925321, 0.00021338806254789233, 0.0001248746266355738, 0.00026573517243377864, 0.00011209272634005174, 0.00021042293519712985, 0.00020627229241654277, 0.0001055065804393962, 0.00014504246064461768, 0.00011247725342400372, 0.00026966576115228236, 0.00017471706087235361, 0.00017657769785728306, 0.00024322578974533826, 0.00023280095774680376, 0.00013674783986061811, 0.00011342923971824348, 0.00015053657989483327, 0.00021958674187771976, 0.00020777806639671326, 0.0002016364160226658, 0.00025992956943809986, 5.8885994803858921e-05, 0.00022078967595007271, 0.00027200119802728295, 0.00022447538503911346, 7.3889154009521008e-05, 0.0002215285348938778, 0.00017687841318547726, 0.0001782106701284647, } };
const TfLiteAffineQuantization quant12 = { (TfLiteFloatArray*)&quant12_scale, (TfLiteIntArray*)&g0::quant6_zero, 0 };
const MODEL_SECTION(EI_MODEL_SECTION) ALIGN(16) int8_t tensor_data13[96*1*1*16] = { 
  /* [0][0][][] */ -78,58,12,-5,0,-33,-38,-12,73,-25,1,-82,116,-106,-15,-127, 
  /* [1][0][][] */ -103,72,-81,-114,-68,57,-32,58,-20,2,63,-42,23,127,15,11, 
  /* [2][0][][] */ -48,-37,-110,-27,-15,-91,39,-83,-120,120,122,32,59,57,-46,127, 
  /* [3][0][][] */ -47,-69,21,-55,-98,-11,-42,-126,4,28,29,-60,-51,-24,-127,-50, 
  /* [4][0][][] */ 113,30,-7,29,-99,-7,-127,28,5,76,14,84,16,26,-43,-107, 
  /* [5][0][][] */ -46,65,-54,-42,58,-28,-16,-84,62,5,-20,-51,50,-127,-68,-87, 
  /* [6][0][][] */ 16,-46,1,13,-82,97,47,-68,-46,-53,122,-38,15,3,-127,31, 
  /* [7][0][][] */ -18,127,71,-32,43,100,14,-23,43,70,-47,-41,19,28,21,55, 
  /* [8][0][][] */ -52,-31,31,8,97,24,96,127,-80,-41,-90,-95,33,76,-90,-81, 
  /* [9][0][][] */ 39,35,127,13,-82,-20,-69,-110,97,25,87,-1,-20,-125,65,-36, 
  /* [10][0][][] */ -3,-115,13,-82,-127,88,36,21,-24,-75,-15,36,-9,55,-117,3, 
  /* [11][0][][] */ 111,-66,-26,79,-109,-42,58,-14,77,72,-30,35,12,-83,-23,127, 
  /* [12][0][][] */ -50,-36,108,-40,42,-45,54,69,80,-24,127,61,-49,10,-119,30, 
  /* [13][0][][] */ -30,-56,5,38,38,29,125,54,-127,-5,23,23,-11,102,86,-68, 
  /* [14][0][][] */ 127,-39,124,-13,35,59,55,46,75,109,63,53,36,-18,85,-17, 
  /* [15][0][][] */ 9,120,-17,-53,19,96,-42,61,-55,-33,-20,6,-61,127,-8,-28, 
  /* [16][0][][] */ -33,40,84,-48,4,65,13,7,-19,-4,2,56,89,18,96,127, 
  /* [17][0][][] */ -7,98,72,-127,41,-28,9,-85,-25,96,-39,46,-50,-26,83,-77, 
  /* [18][0][][] */ -89,22,-58,-79,99,108,-80,-98,59,102,106,79,-27,127,-28,-21, 
  /* [19][0][][] */ 49,117,97,103,49,-26,-36,2,-37,127,38,96,66,44,-68,66, 
  /* [20][0][][] */ 108,-32,-25,52,-100,-38,-6,43,-40,-71,-127,-63,124,-46,31,9, 
  /* [21][0][][] */ -127,-114,-15,82,-52,-32,-93,55,11,-33,51,29,-16,39,-85,30, 
  /* [22][0][][] */ -27,-21,-53,-42,127,-15,-52,80,30,54,46,73,2,63,-22,29, 
  /* [23][0][][] */ -48,40,2,18,36,91,98,81,-36,127,-51,-24,3,48,-70,-49, 
  /* [24][0][][] */ 21,-97,71,25,127,18,53,-48,73,3,21,21,-34,5,-17,-32, 
  /* [25][0][][] */ 120,-52,75,8,-13,-37,-52,91,127,-26,-27,40,88,-20,116,12, 
  /* [26][0][][] */ 61,7,90,71,52,-30,-60,3,20,60,11,127,23,-76,33,-41, 
  /* [27][0][][] */ -40,52,-47,46,-51,117,-5,-104,46,-53,87,45,22,-14,127,63, 
  /* [28][0][][] */ -21,35,-48,-127,47,-43,1,-37,-46,100,-65,-1,4,34,-10,45, 
  /* [29][0][][] */ 92,126,-65,49,57,127,-78,-4,62,82,-8,63,-127,9,-66,76, 
  /* [30][0][][] */ -9,104,-127,-108,108,-60,-19,19,-99,55,-86,-7,-3,94,6,103, 
  /* [31][0][][] */ 37,-122,108,3,104,-53,-100,64,-51,-19,15,-37,-44,42,-2,127, 
  /* [32][0][][] */ -52,69,8,56,-127,51,22,41,44,-109,16,-89,40,57,58,32, 
  /* [33][0][][] */ -59,-32,60,114,21,46,-79,21,-49,-53,23,-30,10,-36,-12,127, 
  /* [34][0][][] */ 0,31,-126,-92,92,17,2,87,16,-16,3,-40,-84,-40,-15,127, 
  /* [35][0][][] */ 70,2,49,-3,-1,31,-87,-42,-27,-127,-73,-12,18,-29,56,-36, 
  /* [36][0][][] */ -13,6,-127,-40,31,95,20,33,-19,0,26,17,26,45,-81,64, 
  /* [37][0][][] */ 44,57,95,-76,97,-127,24,-26,-110,89,-125,-11,32,-5,82,32, 
  /* [38][0][][] */ -48,127,35,-63,25,21,53,-76,1,-2,-124,35,-28,-90,-96,5, 
  /* [39][0][][] */ 81,35,-127,-88,-12,-33,-1,-35,-24,-13,4,-51,72,4,-112,-42, 
  /* [40][0][][] */ -23,7,-96,-84,-76,-45,16,-127,-17,-41,32,-21,24,84,57,78, 
  /* [41][0][][] */ -26,-126,-33,127,1,-31,-69,-4,-15,-90,111,-41,-94,20,27,24, 
  /* [42][0][][] */ -33,51,-24,-127,22,5,8,-21,59,6,-49,1,56,-37,-35,12, 
  /* [43][0][][] */ -11,41,-5,35,127,41,24,41,-3,29,1,-72,-84,-13,-36,-14, 
  /* [44][0][][] */ 107,-33,28,72,-43,-40,-7,55,40,-45,44,29,127,38,-46,-61, 
  /* [45][0][][] */ 4,-91,-62,53,-9,-57,24,40,30,-19,3,24,-55,127,18,-42, 
  /* [46][0][][] */ -48,-124,59,91,1,-31,-118,87,56,-34,35,-35,61,60,97,127, 
  /* [47][0][][] */ -23,-30,34,52,12,14,30,1,13,-38,-127,-47,53,-45,-72,-3, 
  /* [48][0][][] */ -50,52,-18,-29,32,48,9,-98,47,-10,9,-51,77,-127,-52,-11, 
  /* [49][0][][] */ -32,34,21,-13,-10,17,118,127,-49,-31,21,22,-80,48,-42,43, 
  /* [50][0][][] */ 61,2,-69,13,25,-127,-34,-10,-67,30,-23,17,-7,-51,-72,-67, 
  /* [51][0][][] */ -62,46,0,101,-23,59,-27,-54,-18,-55,-20,-61,30,1,-29,127, 
  /* [52][0][][] */ -127,20,33,-10,9,61,59,-1,23,-61,-56,-61,-87,-38,-105,-22, 
  /* [53][0][][] */ -55,-105,-85,-127,-56,-43,2,107,70,-62,-31,15,-42,14,72,99, 
  /* [54][0][][] */ 21,-70,-19,-9,-30,35,64,-7,-9,-85,68,42,-44,2,-127,41, 
  /* [55][0][][] */ -8,-28,-28,-3,75,-38,46,71,-43,-52,-127,-49,46,-44,-15,34, 
  /* [56][0][][] */ 59,-38,-76,-27,-127,21,-82,10,-22,-25,-16,17,99,-17,56,26, 
  /* [57][0][][] */ -63,5,22,-42,107,57,71,56,-16,74,-31,-25,-34,55,-127,-1, 
  /* [58][0][][] */ 51,18,24,-36,69,6,-82,-82,71,-127,-100,-14,-91,-56,-22,42, 
  /* [59][0][][] */ -41,-5,10,7,28,78,-122,-69,64,127,-99,0,-7,9,-41,-3, 
  /* [60][0][][] */ 16,-68,-11,21,-127,-65,20,14,-21,58,-10,55,-6,-41,24,44, 
  /* [61][0][][] */ 21,42,-54,18,-22,4,-127,-76,-1,19,17,90,78,-51,70,53, 
  /* [62][0][][] */ 13,-35,26,-11,-5,39,51,127,-40,99,31,66,40,18,57,107, 
  /* [63][0][][] */ 24,-127,-16,-31,-64,-5,59,-32,6,-37,-5,-14,-59,119,109,19, 
  /* [64][0][][] */ -26,-45,-112,-59,39,77,25,-9,-29,-127,24,-26,103,-39,-93,100, 
  /* [65][0][][] */ 13,16,54,49,67,2,60,51,-22,18,-127,-76,46,60,-64,-39, 
  /* [66][0][][] */ -30,-127,-29,-100,-52,-111,64,-1,-15,-51,51,109,-50,-16,-48,76, 
  /* [67][0][][] */ -6,-37,-86,-1,-43,127,-3,-97,-91,-7,-57,-89,21,3,-59,6, 
  /* [68][0][][] */ 125,90,4,-41,-63,-20,-88,-46,-109,-127,-26,-10,59,-7,41,-85, 
  /* [69][0][][] */ 29,7,29,-2,-8,-33,-65,24,-14,127,-20,21,8,37,47,3, 
  /* [70][0][][] */ 13,-24,-47,52,-127,5,12,-92,64,113,35,33,60,-60,-12,48, 
  /* [71][0][][] */ 127,-36,43,96,-93,-63,60,-45,69,-12,-12,9,40,-35,7,12, 
  /* [72][0][][] */ 18,-19,52,115,21,20,-127,70,58,24,50,-1,-78,-49,-79,88, 
  /* [73][0][][] */ 90,29,91,-118,105,-124,-106,46,4,127,-61,-1,-22,-102,12,-63, 
  /* [74][0][][] */ 116,47,17,64,-127,-9,69,3,-116,-36,-6,-84,64,-59,9,23, 
  /* [75][0][][] */ 57,116,-127,41,46,52,0,-20,-10,-41,15,92,-125,68,77,72, 
  /* [76][0][][] */ -72,-21,14,-27,-46,7,59,-12,-46,31,81,22,-59,-127,-19,100, 
  /* [77][0][][] */ -26,127,-34,-5,-28,-50,7,53,14,-66,11,89,-45,68,19,56, 
  /* [78][0][][] */ 121,61,-37,15,-49,53,-127,-29,1,-8,-86,-5,11,-100,5,37, 
  /* [79][0][][] */ -77,-48,127,29,-7,-69,-67,-17,-22,9,0,30,-42,89,-45,37, 
  /* [80][0][][] */ 72,127,1,-85,-33,47,85,-12,27,43,-49,5,66,-35,12,-28, 
  /* [81][0][][] */ 41,-35,29,-127,85,66,18,106,91,53,-37,-77,-16,13,-95,-67, 
  /* [82][0][][] */ 49,19,62,9,127,-102,1,56,17,67,-51,32,6,-56,13,-101, 
  /* [83][0][][] */ -50,59,-7,23,85,78,127,90,-21,22,9,-59,-116,75,-43,-62, 
  /* [84][0][][] */ 13,-81,25,117,-12,-62,-82,-2,-67,39,-44,-27,-127,25,8,-37, 
  /* [85][0][][] */ -69,52,-33,10,-31,-61,-24,-12,1,39,22,-38,-127,-67,-40,44, 
  /* [86][0][][] */ -22,59,71,97,31,-14,49,22,-1,-6,-30,-77,46,75,-127,-37, 
  /* [87][0][][] */ -5,33,127,-42,-118,-52,29,18,28,-41,26,70,-77,37,7,-36, 
  /* [88][0][][] */ -37,-101,-127,34,49,52,-29,-17,17,-117,-106,-95,109,-33,7,14, 
  /* [89][0][][] */ 20,32,37,-127,26,-49,-61,40,122,-2,8,-116,23,-48,40,-70, 
  /* [90][0][][] */ -20,53,9,21,-24,36,55,127,-1,-72,3,109,62,-2,-53,93, 
  /* [91][0][][] */ -65,-20,-34,67,63,30,-17,-116,-44,-3,7,-1,-71,-127,-73,8, 
  /* [92][0][][] */ -50,37,-24,4,-127,-17,-43,62,-13,55,113,50,1,-26,23,34, 
  /* [93][0][][] */ 127,52,99,38,-108,-57,21,35,-9,-60,-52,-78,39,-53,12,1, 
  /* [94][0][][] */ -37,-127,58,-110,40,66,-21,-24,119,-6,-25,37,43,49,-79,38, 
  /* [95][0][][] */ -26,-75,-31,-45,127,83,-26,46,83,36,-85,53,-23,96,-87,30, 
};
const TfArray<96, float> quant13_scale = { 96, { 0.0015320596285164356, 0.0015193055151030421, 0.0017281835898756981, 0.0026950170285999775, 0.0012831707717850804, 0.001276058261282742, 0.0012942291796207428, 0.0025886620860546827, 0.0014233329566195607, 0.0010801641037687659, 0.0026065160054713488, 0.0014645896153524518, 0.001888481667265296, 0.0020363957155495882, 0.0027461813297122717, 0.0023565471637994051, 0.0028198279906064272, 0.0017513938946649432, 0.001814734423533082, 0.0028267474845051765, 0.0017078950768336654, 0.0013614034978672862, 0.0012670115102082491, 0.0020088145975023508, 0.0020262913312762976, 0.0022989141289144754, 0.0012978947488591075, 0.0014647558564320207, 0.0026569878682494164, 0.0014145091408863664, 0.0011593145318329334, 0.0019186623394489288, 0.0010941207874566317, 0.0022516821045428514, 0.0016708433395251632, 0.0016004772624000907, 0.0024008688051253557, 0.0013986888807266951, 0.0021227900870144367, 0.0028286885935813189, 0.0021651578135788441, 0.0023482320830225945, 0.0027660820633172989, 0.0025835908018052578, 0.0030432087369263172, 0.002396388677880168, 0.0020049482118338346, 0.0014791360590606928, 0.0015742260729894042, 0.0022456164006143808, 0.0016603156691417098, 0.0022650340106338263, 0.0016628091689199209, 0.0026104741264134645, 0.0032234396785497665, 0.0016589402221143246, 0.0021655422169715166, 0.0017097576055675745, 0.0011612559901550412, 0.0024188538081943989, 0.0023408397100865841, 0.0016743848100304604, 0.0019129443680867553, 0.0021907819900661707, 0.0015778521774336696, 0.0014767460525035858, 0.0018961310852319002, 0.0023597292602062225, 0.0013809128431603312, 0.0029386042151600122, 0.0012395655503496528, 0.0023269397206604481, 0.0022810401860624552, 0.0011667333310469985, 0.0016039366601034999, 0.0012438177363947034, 0.0029820702038705349, 0.0019320901483297348, 0.0019526657415553927, 0.0026896866038441658, 0.002574404701590538, 0.0015122113982215524, 0.0012543451739475131, 0.0016646927688270807, 0.0024282766971737146, 0.0022976917680352926, 0.0022297748364508152, 0.0028744034934788942, 0.00065118452766910195, 0.0024415792431682348, 0.0030078962445259094, 0.0024823371786624193, 0.00081709533696994185, 0.0024497497361153364, 0.0019559911452233791, 0.0019707237370312214, } };
const TfLiteAffineQuantization quant13 = { (TfLiteFloatArray*)&quant13_scale, (TfLiteIntArray*)&g0::quant6_zero, 0 };
const MODEL_SECTION(EI_MODEL_SECTION) ALIGN(16) int32_t tensor_data14[16] = { -25921, -7651, 2321, -15284, 15546, -15156, 20418, -4540, 9511, -9348, 12236, 11230, -1335, -28661, 1754, 6927, };
const TfArray<16, float> quant14_scale = { 16, { 9.4388786237686872e-05, 5.4954874940449372e-05, 5.3753217798657715e-05, 5.9266982134431601e-05, 6.1534541600849479e-05, 0.00014096431550569832, 5.6562119425507262e-05, 5.6537472119089216e-05, 0.00010858989116968587, 9.6666932222433388e-05, 8.383949170820415e-05, 9.9414603027980775e-05, 9.6295392722822726e-05, 8.1439349742140621e-05, 5.8337816881248727e-05, 6.6852124291472137e-05, } };
const TfLiteAffineQuantization quant14 = { (TfLiteFloatArray*)&quant14_scale, (TfLiteIntArray*)&g0::quant8_zero, 0 };
const MODEL_SECTION(EI_MODEL_SECTION) ALIGN(16) int8_t tensor_data15[16*1*1*96] = { 
  /* [0][0][][] */ 4,19,22,12,-18,-76,7,-22,-32,-52,1,-9,51,-40,33,25,-88,-16,52,13,74,15,-60,20,3,46,127,56,25,67,42,-54,-10,12,13,-20,20,37,-10,-4,108,2,30,-18,-1,-2,-18,-37,24,-23,95,-4,-68,5,51,34,4,-27,11,27,-28,44,-58,-19,13,-14,71,9,13,-40,23,39,18,38,23,39,70,-18,54,26,-1,53,48,51,-51,2,-13,59,-1,4,-88,-15,31,-2,88,52, 
  /* [1][0][][] */ 21,54,-55,-24,-2,-47,108,-52,-46,-47,-78,-20,-17,-28,-22,-74,-41,-22,-40,-28,-1,-86,110,-24,3,4,17,79,-50,32,-17,34,-21,37,17,-2,-2,76,-49,74,32,19,-2,-64,67,-54,-13,32,-79,13,49,-94,-53,23,75,71,30,6,-58,4,-35,13,-3,-22,22,44,127,30,-63,-118,-12,20,6,55,-10,43,-65,-51,96,-43,45,3,73,-64,-9,-70,-22,4,-35,-36,55,-5,77,-42,-23,49, 
  /* [2][0][][] */ 3,-4,4,6,68,56,-65,23,-46,52,29,-15,31,-24,17,22,46,-26,-127,5,1,-29,-19,34,1,-13,-54,26,-28,4,-25,79,-18,-42,-3,21,-24,21,-16,-33,66,0,27,21,15,44,15,-25,-73,15,-19,25,-14,57,-4,-77,21,40,52,17,-15,4,-9,44,36,9,-52,4,8,-4,-32,-26,35,57,41,89,-69,-20,-41,-52,38,18,55,-6,-2,-54,-9,-55,-1,-33,5,62,-6,-2,98,-50, 
  /* [3][0][][] */ 38,-48,-5,-120,-21,-12,103,-57,28,108,-69,-22,15,-30,-22,43,68,64,-20,38,-23,7,29,14,-44,84,67,-11,-20,-22,-85,59,20,-2,24,-37,-7,-52,-21,70,21,-2,-8,23,72,-58,11,42,31,-7,26,-55,104,40,3,-3,-11,-12,-3,-44,-46,61,83,2,-19,-26,127,-51,-22,-32,-54,54,-7,-67,0,-88,31,-38,119,2,-20,-71,-19,-32,-44,-29,64,70,-45,64,-67,18,29,-67,-35,29, 
  /* [4][0][][] */ -15,73,58,2,-34,-5,-42,-15,12,-59,14,-25,46,51,-8,27,0,-60,-36,-97,23,-46,-77,2,-44,-29,-14,6,-58,127,-71,-15,24,-67,-15,-56,66,39,-42,21,21,-6,5,-42,-66,-9,83,-10,8,1,-88,-24,-83,35,49,13,-4,75,-42,34,-40,-94,-11,25,77,27,-60,7,-20,-1,11,-99,-17,60,42,55,-39,34,-53,63,-2,61,13,-66,43,-73,-37,-86,-42,-41,-66,-4,-3,9,33,-55, 
  /* [5][0][][] */ -6,-17,53,-30,-22,-9,-27,4,40,-4,-26,1,-9,-41,14,-18,7,15,-52,-17,-15,5,-10,3,31,-52,62,-21,6,34,-1,83,6,-77,18,6,-42,-26,-42,9,-43,-12,-17,10,-5,23,-66,26,-32,37,48,-22,33,-79,-1,8,-19,-58,9,-30,40,36,36,53,-33,16,120,-22,-8,-36,7,33,-9,36,27,1,-3,-10,127,46,-36,-21,-29,39,37,73,10,112,3,-20,-8,24,6,-2,-40,19, 
  /* [6][0][][] */ 40,-64,61,33,-55,101,-49,-92,-21,-95,-83,89,-3,28,-2,65,6,49,25,-63,-90,-38,-87,-79,-20,-73,-25,57,-111,36,11,-15,59,92,-7,25,5,-56,36,-9,-30,77,15,-12,7,47,-80,11,45,-8,-57,-127,80,11,-38,10,53,-48,18,-2,-12,-55,40,13,68,-77,-49,-42,-123,52,-21,-90,-52,-104,15,-126,76,4,-66,30,-44,73,41,-111,76,-44,-38,-8,-72,68,-75,71,39,-51,91,-78, 
  /* [7][0][][] */ 7,-1,-62,65,-17,-5,22,14,-89,5,66,60,-7,-61,-6,-9,-10,-11,-4,-13,-66,-6,-46,-52,54,52,-18,73,-12,34,27,35,-68,-127,18,89,8,16,-35,1,-16,0,-10,-80,26,41,72,69,-2,28,-51,10,4,-23,23,-59,-30,23,-86,-12,68,-9,-7,-45,53,-34,84,-6,-70,-10,70,-10,-27,-23,-85,-7,19,-42,75,-31,8,-9,-76,-44,32,7,-58,24,4,-2,11,15,51,-5,89,-16, 
  /* [8][0][][] */ -23,-65,9,14,-18,2,30,-20,-21,-3,43,53,2,42,-36,-12,62,8,16,6,1,-78,-30,-11,-16,-26,82,21,-3,50,-1,-25,-14,9,10,13,-55,-16,3,-36,4,26,34,-25,24,-21,16,-11,27,9,61,5,17,-4,-30,13,-2,103,-48,-17,-22,-51,-61,-11,-88,-48,-7,10,5,-1,19,-6,-21,-127,57,-89,-2,12,-44,3,-24,0,12,53,78,-55,-46,63,-43,94,4,-9,-40,-3,7,-49, 
  /* [9][0][][] */ -31,-31,-27,16,-7,26,8,20,-41,11,68,47,-29,58,9,-64,-17,35,-16,-26,21,34,3,24,-18,8,2,30,44,-7,3,3,-6,-7,8,38,-21,10,33,0,-3,-40,13,-6,19,44,1,43,-45,20,-7,39,123,24,-26,-7,14,-4,42,19,-36,11,92,2,18,26,47,0,41,-19,-18,28,11,-117,-36,-123,-24,-6,28,2,-4,23,11,-24,36,13,-39,-6,-2,127,30,42,64,21,-19,16, 
  /* [10][0][][] */ 17,34,3,1,-6,20,-27,-33,57,20,-28,12,9,18,-14,-54,-48,2,20,-3,19,-12,-21,-24,20,-24,-90,51,-15,64,11,5,4,33,-9,3,6,9,2,-12,35,8,71,-38,-20,5,6,19,32,0,19,-12,-34,-9,-3,55,-13,0,-7,-16,-14,-32,-16,-3,-15,-28,-99,-41,-49,-15,58,-12,-11,42,47,28,66,-28,-98,7,2,44,12,1,10,9,-68,-127,-45,16,21,22,39,-38,29,44, 
  /* [11][0][][] */ 6,-28,-9,20,-39,38,11,-8,57,0,-5,-40,13,-1,2,-6,-32,45,10,-47,13,26,19,-10,44,3,65,9,35,-47,-46,11,2,103,-78,-3,17,-9,45,-5,-58,43,-6,2,-30,11,-21,-16,55,-32,-11,-11,-22,16,-80,91,-35,0,-13,-32,21,15,1,-73,-19,-46,-127,-62,18,-32,-70,36,62,22,1,10,20,43,-117,-45,2,7,-16,3,-18,-9,52,73,9,-40,13,-7,-22,12,77,21, 
  /* [12][0][][] */ 26,28,-39,-24,7,-6,-9,55,63,-40,14,10,-3,-32,0,18,22,-47,-28,30,3,57,13,38,-45,-34,-127,-15,65,-25,34,19,-8,-70,62,-8,41,-15,6,25,1,-43,19,15,26,-8,38,-24,-63,2,-51,81,60,-20,17,-76,4,-5,-25,-23,30,41,67,19,-11,0,17,31,90,45,20,19,-9,-16,-21,-9,-50,-48,29,-64,15,-53,14,-56,-8,5,15,-103,5,24,-31,7,-1,73,10,34, 
  /* [13][0][][] */ -3,33,-79,40,38,35,-1,6,30,78,-29,55,-65,-21,71,-35,21,44,62,8,-31,-33,-19,8,30,59,-27,29,-7,55,68,-20,-34,46,-27,64,30,-44,-28,-62,-7,-4,9,9,58,34,-39,39,-32,20,-7,14,-32,-37,48,34,-1,-52,-11,-35,16,8,-9,-39,2,83,127,30,10,7,-68,-29,43,46,-72,67,15,-79,119,-52,4,-46,34,-8,38,41,-22,-33,-12,-39,19,42,29,8,75,74, 
  /* [14][0][][] */ -33,52,-10,26,-72,-34,12,26,-74,-3,85,16,-89,-5,64,-42,-52,59,-56,41,-11,34,-83,10,-47,-2,-63,-110,36,-9,11,89,-33,30,12,-23,-29,-66,-6,-46,43,-36,56,-27,-15,56,-75,25,-21,-30,84,46,-5,28,-44,24,-57,44,13,36,33,69,2,36,7,-41,-2,-85,64,61,64,48,-31,39,6,12,18,-16,38,-4,-66,104,-8,-127,75,14,-11,16,-113,-8,-32,-17,-8,-14,29,29, 
  /* [15][0][][] */ 73,-24,14,40,46,6,-16,10,18,37,-73,-13,57,50,5,-3,-14,-11,-87,43,-23,-16,2,17,66,-47,68,31,23,-30,-26,66,42,40,11,-78,69,66,53,45,86,55,-35,7,-48,-118,23,-43,-17,-38,-7,-2,-14,-53,-40,52,-25,-7,-31,21,13,-54,-42,21,29,44,-85,52,-26,-12,4,-29,-13,-111,-42,-90,-30,9,-127,32,87,-20,50,13,-67,-19,2,-24,47,75,20,-76,-51,-12,50,-29, 
};
const TfArray<16, float> quant15_scale = { 16, { 0.0040115234442055225, 0.0023355821613222361, 0.0022845116909593344, 0.0025188466534018517, 0.0026152180507779121, 0.0059909834526479244, 0.0024038900155574083, 0.0024028425104916096, 0.0046150702983140945, 0.0041083446703851223, 0.0035631784703582525, 0.0042251204140484333, 0.0040925540961325169, 0.0034611723385751247, 0.0024793571792542934, 0.0028412153478711843, } };
const TfLiteAffineQuantization quant15 = { (TfLiteFloatArray*)&quant15_scale, (TfLiteIntArray*)&g0::quant8_zero, 0 };
const MODEL_SECTION(EI_MODEL_SECTION) ALIGN(16) int32_t tensor_data16[96] = { 11098, 341, -4704, 10189, 1442, 562, 1793, -2210, 2866, -4599, 409, -3972, 8649, -2760, -2557, -5295, -156, 2345, -7858, -1480, -3209, 2769, -6616, 1179, 24, 5363, -12037, -5723, 1086, -3073, -1447, -1330, 12386, -797, -296, -1776, -674, 8863, 2071, 14995, -1475, 6001, -376, 6799, 1330, -1066, 11264, 550, -6913, 497, -3171, 816, 1251, -3135, -8, 1501, -52, 3602, -637, 1225, 372, 1099, 1749, 8073, 11350, -189, 11714, 16750, 36, -806, 8726, -2019, -106, 1662, -2807, 576, 15440, 9731, 9894, 19084, 10843, -1509, 12814, 11906, -1980, -693, 11301, -7332, 11944, 95, -6043, 1744, 714, 2803, 26164, -1552, };
const TfArray<96, float> quant16_scale = { 96, { 8.842052920954302e-05, 0.00027892610523849726, 0.00018185502267442644, 0.00012998750025872141, 0.00021881796419620514, 0.00041414401493966579, 8.9846784248948097e-05, 0.00021645048400387168, 0.00033341441303491592, 0.00019945940584875643, 0.00027556961867958307, 0.00021042741718702018, 9.2357324319891632e-05, 0.00015916388656478375, 0.00020605770987458527, 0.00020048441365361214, 0.00033747183624655008, 0.00035184252192266285, 0.00013028988905716687, 0.00030043680453673005, 0.00021813091007061303, 0.00017712364206090569, 0.0001123423789977096, 0.00014728149108123034, 0.0020677563734352589, 0.0001943217939697206, 0.00020806056272704154, 0.00013074780872557312, 0.00032053931499831378, 0.00017592044605407864, 0.00019621064711827785, 0.00027137220604345202, 8.6795917013660073e-05, 0.00041034765308722854, 0.00014157485566101968, 0.00018788006855174899, 0.00035925317206420004, 0.00012053853424731642, 0.00024116883287206292, 7.5002863013651222e-05, 0.00061622855719178915, 0.0001661448332015425, 0.00028806718182750046, 0.00014071509940549731, 0.00015768149751238525, 0.00027421937556937337, 0.00012065826012985781, 0.00032852761796675622, 0.0001743238972267136, 0.00042280417983420193, 0.00024375488283112645, 0.00021374018979258835, 0.00013794603000860661, 0.00027893049991689622, 0.00030455322121270001, 0.00030664750374853611, 0.00015439977869391441, 0.00032964147976599634, 0.00029658997664228082, 0.00033874882501550019, 0.00024617387680336833, 0.00029445256222970784, 0.00017269162344746292, 0.00010672018106561154, 0.00019788867211900651, 0.0004142693942412734, 0.00013039344048593193, 9.3795752036385238e-05, 0.00024679512716829777, 0.00034397051786072552, 0.00015036301920190454, 0.00029550763429142535, 0.0006285126437433064, 0.00016920830239541829, 0.00017163333541247994, 0.00018483206804376096, 9.7873009508475661e-05, 0.00012423728185240179, 0.00012727997091133147, 0.00012013578088954091, 0.00012732997129205614, 0.00029453565366566181, 9.611714631319046e-05, 0.00022545500542037189, 0.00010438096796860918, 0.00028328728512860835, 9.6095573098864406e-05, 0.0002491078048478812, 0.00010543662210693583, 0.00021765353449154645, 0.00014037547225598246, 0.00019034833530895412, 0.00025461337645538151, 0.00014768846449442208, 7.8961063991300762e-05, 0.00025399148580618203, } };
const TfLiteAffineQuantization quant16 = { (TfLiteFloatArray*)&quant16_scale, (TfLiteIntArray*)&g0::quant6_zero, 0 };
const MODEL_SECTION(EI_MODEL_SECTION) ALIGN(16) int8_t tensor_data17[1*3*3*96] = { 
  /* [0][0][][] */ -32,-17,-7,-26,68,-2,33,-16,1,16,-22,-3,-66,15,-4,-47,-24,-4,22,-11,15,19,40,24,-15,6,-53,11,31,9,11,12,-33,9,-18,-10,-1,-68,-47,37,7,-1,49,-39,-30,35,-48,-17,-25,-3,-15,30,-86,-11,18,-12,11,5,18,-22,-16,-23,-21,-8,-30,-24,-41,-7,-17,37,25,18,38,3,1,-10,-4,17,127,-52,-81,-5,-104,-38,-16,-10,53,18,-44,-8,-19,-63,-8,14,-33,20, 0,37,7,-127,-50,-23,102,-42,-5,-24,-32,26,-40,-14,-87,45,-3,55,92,-24,15,127,117,95,13,10,76,105,107,37,127,-22,-60,-8,-105,-18,-21,-92,127,-80,-28,-107,-20,-67,37,-38,-27,0,47,-12,9,122,-112,35,-96,-19,-83,-18,7,31,-20,-127,-127,-103,-54,2,5,-112,-15,29,-55,127,-127,-7,7,-22,-119,-87,7,-82,-127,0,3,-81,103,81,-96,42,-91,-5,2,-23,11,95,-84,-113, -12,10,-5,-44,62,-17,24,-20,-23,23,-16,21,-4,-20,-25,-42,-7,-12,25,-11,8,-9,36,33,-18,1,28,2,6,-5,25,6,21,9,-26,70,-7,-36,-18,26,6,18,3,-34,-32,-41,-46,-2,10,-8,1,30,35,-11,6,-2,76,-9,17,-13,-17,-11,-69,0,-44,-28,127,-76,-11,30,4,23,42,-3,-8,30,16,-2,-29,-55,-74,-8,-127,-35,-10,-29,-6,-26,-108,-35,-23,39,-13,4,-8,6, 
  /* [0][1][][] */ -104,-12,46,-79,17,113,-58,7,10,-5,-27,-7,-127,0,28,39,-26,27,60,30,25,-35,127,-37,43,41,89,23,-31,-6,-24,-8,-127,-8,48,-20,3,-127,-45,-127,-10,1,85,-44,-87,127,-127,-75,33,50,9,-45,-127,81,63,-13,24,-35,48,-18,7,-21,83,-127,-39,21,-28,-117,-13,2,-127,35,66,127,6,-93,-127,-32,-62,-78,-93,-5,-32,-73,78,10,-127,40,-103,127,127,-102,127,-14,-101,-4, 45,127,127,121,-127,-127,127,-49,127,127,-93,-52,-86,127,-18,127,127,-127,127,127,127,-107,52,-127,-127,-127,127,127,-127,127,-17,127,-51,127,127,-101,127,45,2,24,127,-34,-127,-127,127,-12,78,127,127,-127,127,-127,108,127,-127,127,-127,127,-127,127,-102,99,84,-113,127,127,-20,127,-103,-127,-41,-110,13,122,127,82,43,-127,79,-127,46,127,103,127,127,49,-110,127,-127,42,6,-45,-112,-37,-103,-53, -127,-52,43,-116,20,51,-63,8,-44,5,-9,127,-67,26,22,29,-12,31,49,18,5,-40,78,-37,47,28,45,-3,-22,-20,17,-1,-88,-23,67,127,-5,-99,-47,-94,-21,-29,49,-44,-44,-61,-112,-95,65,50,8,-37,117,27,69,-32,98,-40,63,-41,-16,-37,-116,-56,-87,-6,-58,-107,-25,8,-82,2,45,-115,-3,127,-71,-49,-56,-37,-96,-13,-84,-91,32,25,-98,45,-75,-68,111,127,-65,-39,-127,6, 
  /* [0][2][][] */ -61,-53,2,-3,24,12,-22,31,-8,14,48,3,16,-5,-7,-33,5,-18,-47,-10,7,-34,1,-39,19,9,-14,-5,-8,-20,1,27,0,6,-24,-26,-2,16,-24,-84,-16,15,35,7,-6,25,-80,4,-7,-6,-4,-6,-7,-52,38,-5,-4,-35,1,4,4,30,-10,4,-49,-26,112,-2,25,16,23,18,16,-11,-23,-49,-30,-8,-22,-67,-2,16,-117,-29,-27,-2,30,-11,29,-5,-36,-41,-17,-31,-33,5, -67,-73,31,-88,-50,14,74,127,-60,56,127,-6,-72,22,127,93,-10,-44,60,-58,-14,-59,51,-9,21,9,55,14,-10,23,-52,-23,-13,-20,-112,6,-75,-23,45,-126,-11,-127,-24,96,24,-11,-73,9,47,-22,4,-29,55,33,-41,-26,-73,-67,55,-54,127,23,82,42,-95,-58,-22,-63,127,28,-37,9,32,-53,14,-16,-47,-39,0,11,-28,-7,-113,-92,64,-127,-8,37,0,-13,27,-22,14,-127,-105,127, -16,10,-2,16,14,0,1,29,-32,-5,22,49,19,-15,-4,1,-6,-5,-19,-22,-21,-23,-21,-28,13,8,-19,-26,-6,4,-1,14,1,10,7,19,-9,26,-9,-59,-23,-40,14,10,40,4,-76,18,2,-8,-9,-9,-1,-45,28,-3,42,-27,16,-19,1,16,12,18,-14,-33,-18,63,18,1,-34,2,-27,-57,-17,0,-44,-16,82,-42,39,6,-79,11,-4,-5,54,11,-2,4,-34,3,-2,-37,-71,-10, 
};
const TfArray<96, float> quant17_scale = { 96, { 0.0040741655975580215, 0.012852118350565434, 0.0083793606609106064, 0.0059894528239965439, 0.010082507506012917, 0.019082574173808098, 0.0041398834437131882, 0.009973420761525631, 0.015362785197794437, 0.0091905202716588974, 0.012697461992502213, 0.0096958950161933899, 0.0042555620893836021, 0.0073338178917765617, 0.009494551457464695, 0.0092377495020627975, 0.015549739822745323, 0.016211898997426033, 0.0060033863410353661, 0.013843270018696785, 0.010050849989056587, 0.0081613520160317421, 0.0051764161325991154, 0.0067863105796277523, 0.095276311039924622, 0.0089537939056754112, 0.0095868371427059174, 0.006024485919624567, 0.014769537374377251, 0.0081059122458100319, 0.0090408269315958023, 0.01250405702739954, 0.0039993082173168659, 0.01890764944255352, 0.0065233656205236912, 0.0086569776758551598, 0.016553360968828201, 0.0055540716275572777, 0.01111237145960331, 0.0034559178166091442, 0.028394052758812904, 0.0076554799452424049, 0.013273313641548157, 0.0064837499521672726, 0.0072655137628316879, 0.012635246850550175, 0.0055595883168280125, 0.015137615613639355, 0.0080323480069637299, 0.019481610506772995, 0.011231529526412487, 0.0098485378548502922, 0.0063561596907675266, 0.0128523213788867, 0.014032943174242973, 0.014129442162811756, 0.007114301435649395, 0.015188938938081264, 0.013666019774973392, 0.015608579851686954, 0.011342990212142467, 0.013567534275352955, 0.0079571371898055077, 0.0049173613078892231, 0.0091181453317403793, 0.019088352099061012, 0.0060081575065851212, 0.0043218405917286873, 0.011371615342795849, 0.015849180519580841, 0.0069282990880310535, 0.013616148382425308, 0.02896006777882576, 0.0077966353856027126, 0.0079083740711212158, 0.0085165342316031456, 0.0045097088441252708, 0.0057244994677603245, 0.0058646979741752148, 0.0055355140939354897, 0.0058670016005635262, 0.013571362942457199, 0.0044288039207458496, 0.010388323105871677, 0.0048095770180225372, 0.013053069822490215, 0.0044278097338974476, 0.011478177271783352, 0.0048582185991108418, 0.010028854012489319, 0.006468101404607296, 0.0087707079946994781, 0.011731858365237713, 0.006805062759667635, 0.0036383005790412426, 0.011703203432261944, } };
const TfLiteAffineQuantization quant17 = { (TfLiteFloatArray*)&quant17_scale, (TfLiteIntArray*)&g0::quant6_zero, 3 };
const MODEL_SECTION(EI_MODEL_SECTION) ALIGN(16) int32_t tensor_data18[96] = { 1620, 9151, 302, 1743, 4260, 17115, 2, 1422, 13165, -794, 14358, 1909, 2120, 491, 7743, 1198, 3556, 5790, -690, 8950, 1555, 9303, -1769, 966, -8105, 1208, 2367, 1809, 8886, 801, 2890, 3118, 1395, 13278, 4256, 5718, 3925, 3316, 3409, 2029, 17792, 1521, 3096, 2227, 2978, 6611, 6394, 9170, 1630, -1665, 1510, 7464, 2985, -3873, 11493, 4, 1891, 7732, 598, 1470, 2585, 11480, 5568, -151, 18033, 10415, 1832, 4154, 9510, 3438, 4563, 1652, -4988, 4670, 2527, 3674, 507, 11476, 3645, 5510, 3859, 1963, 4098, 18830, -634, 7674, 5644, 1370, -1166, 2913, 1241, 17276, 3904, 4601, 5015, 8072, };
const TfArray<96, float> quant18_scale = { 96, { 0.00015513015387114137, 8.8935514213517308e-05, 0.00019938283367082477, 0.00024511772789992392, 0.00016530632274225354, 5.3467396355699748e-05, 0.00023651221999898553, 0.00018617659225128591, 6.6832712036557496e-05, 0.00016645544383209199, 5.9555393818300217e-05, 0.00018348341109231114, 0.00013946410035714507, 0.0003064134216401726, 7.6247779361438006e-05, 8.6385414761025459e-05, 0.00014904275303706527, 0.00012012988736387342, 0.00017692577966954559, 9.7512798674870282e-05, 0.00017627036140765995, 8.7911750597413629e-05, 0.00015444729069713503, 0.00019607230206020176, 9.3802795163355768e-05, 0.0001575457863509655, 0.00020088943711016327, 0.00019154640904162079, 0.00010634161299094558, 0.00034985644742846489, 0.00016630867321509868, 0.0001477893820265308, 0.00024250548449344933, 5.9969090216327459e-05, 0.00013747936463914812, 0.00010764377657324076, 0.00013646161823999137, 0.00013131297600921243, 0.00012453085219021887, 0.00020895134366583079, 5.081018025521189e-05, 0.00018786474538501352, 0.0001367316726827994, 9.7180258308071643e-05, 0.00013697567919734865, 0.00012765679275617003, 0.00010296703112544492, 8.4393213910516351e-05, 0.0002060261758742854, 0.00016291436622850597, 0.00021863292204216123, 0.00010496594768483192, 0.00018200141494162381, 0.00011011253809556365, 6.7362045228946954e-05, 0.00019652229093480855, 0.00015972180699463934, 0.0001029929262585938, 0.00015988398808985949, 0.00015349544992204756, 0.00018605473451316357, 7.5141906563658267e-05, 0.00012172949209343642, 0.00020553577633108944, 5.1572333177318797e-05, 8.4406841779127717e-05, 0.00019932675058953464, 0.00015685772814322263, 8.6123938672244549e-05, 0.00013453215069603175, 0.00013664099969901145, 0.00016240740660578012, 0.00012151986447861418, 0.0001324293261859566, 0.00014016058412380517, 0.00018398227985017002, 0.00025859297602437437, 6.6535896621644497e-05, 0.00016916189633775502, 0.00016138750652316958, 0.00012066863564541563, 9.9621596746146679e-05, 0.00013510622375179082, 4.8771500587463379e-05, 0.00013109897554386407, 9.2108261014800519e-05, 0.00011509215255500749, 0.00022596686903852969, 0.00017465944983996451, 0.0001862725184764713, 0.00013617835065815598, 5.3252046200213954e-05, 0.00013712259533349425, 0.00011307963723083958, 0.00012100437743356451, 8.3516635640989989e-05, } };
const TfLiteAffineQuantization quant18 = { (TfLiteFloatArray*)&quant18_scale, (TfLiteIntArray*)&g0::quant6_zero, 0 };
const MODEL_SECTION(EI_MODEL_SECTION) ALIGN(16) int8_t tensor_data19[96*1*1*16] = { 
  /* [0][0][][] */ 74,7,32,62,-108,-46,84,35,84,127,-60,59,18,8,47,59, 
  /* [1][0][][] */ -46,43,-85,-15,125,87,-12,7,-9,35,-82,50,-70,127,-34,-58, 
  /* [2][0][][] */ -64,69,80,13,71,95,18,58,33,-18,68,-18,43,-127,-16,21, 
  /* [3][0][][] */ 127,-22,17,-5,38,40,-1,5,20,31,-60,-17,-51,44,-24,65, 
  /* [4][0][][] */ -87,-39,23,22,-127,-21,-66,-37,-37,41,-25,-57,5,25,-26,123, 
  /* [5][0][][] */ -127,-7,53,9,109,27,41,29,-50,0,-18,-11,-73,95,-89,-12, 
  /* [6][0][][] */ -127,34,-25,35,-3,-50,74,5,1,-18,-55,33,14,12,-53,29, 
  /* [7][0][][] */ 7,127,68,-66,33,27,111,1,32,17,7,56,83,30,-3,12, 
  /* [8][0][][] */ -17,-13,-51,44,-63,78,-27,-84,14,-31,104,50,127,51,-90,18, 
  /* [9][0][][] */ -4,-127,-33,70,-55,-68,3,63,48,26,15,85,-87,20,11,-16, 
  /* [10][0][][] */ 1,-13,-76,66,-127,69,57,-95,-8,-36,73,-31,18,76,-35,55, 
  /* [11][0][][] */ -20,-111,-57,9,6,62,0,-1,50,-4,9,-50,26,127,-98,75, 
  /* [12][0][][] */ -21,-50,-57,74,-117,-127,17,66,58,74,-20,112,-20,-41,-1,-4, 
  /* [13][0][][] */ -67,-25,-39,-5,-15,-4,26,26,-17,127,-2,-23,28,29,20,-4, 
  /* [14][0][][] */ -127,-57,-73,-39,-67,102,-3,-89,104,-103,96,-17,94,-45,-126,-79, 
  /* [15][0][][] */ -4,-127,119,-73,-48,-26,-1,51,31,-44,-114,-56,86,-60,-54,-66, 
  /* [16][0][][] */ -3,-35,15,-25,24,31,-1,-14,43,-127,56,-2,7,21,-86,-68, 
  /* [17][0][][] */ -27,19,40,-65,6,-15,-42,-6,62,-18,3,66,77,-36,-9,-127, 
  /* [18][0][][] */ 58,-22,-58,-91,-15,-46,127,-19,-5,34,14,83,-29,95,-11,-96, 
  /* [19][0][][] */ -6,-24,-48,-39,-110,47,-4,-20,18,-53,46,-127,-32,-42,-5,-2, 
  /* [20][0][][] */ 30,84,86,-117,60,-23,-31,108,-87,-114,-2,-76,-15,127,-6,-43, 
  /* [21][0][][] */ -26,-80,-127,-3,122,57,88,111,-79,-85,-33,45,89,-65,-53,38, 
  /* [22][0][][] */ 79,-3,82,4,1,0,49,40,13,127,36,29,-8,0,115,11, 
  /* [23][0][][] */ -97,-37,-24,77,77,50,15,-14,-3,18,-16,-70,9,37,39,127, 
  /* [24][0][][] */ 22,-15,38,16,16,-81,11,-44,21,127,-97,69,1,-50,69,-57, 
  /* [25][0][][] */ 99,-55,127,124,64,33,11,12,-96,114,36,-74,8,12,48,-37, 
  /* [26][0][][] */ -15,34,15,33,-59,111,-3,29,-51,-26,-81,32,5,28,46,-127, 
  /* [27][0][][] */ 46,-16,-23,-72,-53,-12,-70,29,-127,-31,-86,-40,-79,46,-6,114, 
  /* [28][0][][] */ -42,-6,30,11,3,-26,-127,16,9,-17,20,9,8,-25,-42,-37, 
  /* [29][0][][] */ -37,-83,-16,65,-29,1,127,15,67,58,-104,60,20,-12,-42,64, 
  /* [30][0][][] */ 42,-79,-42,-12,-127,31,76,-53,31,-10,-19,-15,-2,64,-10,56, 
  /* [31][0][][] */ -127,-48,-3,113,-19,19,-68,-8,-52,-79,15,-62,-14,-79,-32,89, 
  /* [32][0][][] */ -127,-67,-60,-12,-87,-49,12,-32,106,79,-64,-49,54,51,16,-24, 
  /* [33][0][][] */ 10,9,-115,44,-110,-101,34,10,-127,42,-41,-32,-20,110,76,64, 
  /* [34][0][][] */ 21,32,21,52,-61,-49,16,31,16,-127,-6,18,-22,-9,24,92, 
  /* [35][0][][] */ 79,-32,-92,-30,-127,4,73,-36,53,60,-22,10,56,100,62,76, 
  /* [36][0][][] */ -3,24,-72,66,127,-11,51,73,-80,15,-64,-90,17,-44,-8,37, 
  /* [37][0][][] */ -127,53,11,-74,68,-72,-34,-47,0,-13,-27,61,76,-66,-14,-123, 
  /* [38][0][][] */ 70,96,2,-54,-127,-70,-94,-46,-37,-106,33,33,-37,-111,102,-3, 
  /* [39][0][][] */ 21,-41,30,33,-5,44,79,-64,-17,46,-18,-2,12,127,36,68, 
  /* [40][0][][] */ 123,57,57,68,-72,-66,3,-5,-62,61,-24,-12,-15,-37,127,-9, 
  /* [41][0][][] */ -16,10,2,68,-101,127,12,57,-74,20,-106,1,7,17,58,-98, 
  /* [42][0][][] */ 28,-127,-2,2,111,22,51,30,-52,-127,-74,-18,-14,-19,5,14, 
  /* [43][0][][] */ -70,-66,-82,-34,104,64,33,125,-108,-75,-104,-127,99,21,-108,92, 
  /* [44][0][][] */ -21,-52,-48,-67,11,78,50,5,-30,-123,-28,58,-10,53,41,127, 
  /* [45][0][][] */ 12,-61,-57,-2,-127,37,-34,-36,51,-30,5,-44,12,2,-7,17, 
  /* [46][0][][] */ 39,-111,-37,32,74,-121,12,104,-23,-57,66,108,-57,-27,52,-127, 
  /* [47][0][][] */ -40,-13,25,94,-32,4,13,4,45,127,74,107,-37,72,14,74, 
  /* [48][0][][] */ 44,-3,-67,-91,24,-69,5,40,50,-63,-8,29,-60,14,-32,-127, 
  /* [49][0][][] */ 71,28,12,20,-7,-8,73,47,-14,127,-29,24,-31,-27,55,66, 
  /* [50][0][][] */ 10,-7,-1,2,-127,-24,0,-34,39,10,23,49,-25,-44,15,-1, 
  /* [51][0][][] */ 18,-30,-9,-127,-5,115,37,-56,21,2,19,-32,78,62,-18,-1, 
  /* [52][0][][] */ 24,-34,-19,-72,65,-99,11,-12,19,-25,127,-50,33,12,-24,109, 
  /* [53][0][][] */ -67,-70,49,-46,-23,-127,11,-110,-6,113,-101,95,-11,-12,17,-67, 
  /* [54][0][][] */ 64,104,64,-13,-127,-67,-97,-110,23,14,82,91,-100,-55,76,33, 
  /* [55][0][][] */ 23,12,-46,52,-42,24,43,-22,-3,127,0,56,12,0,8,44, 
  /* [56][0][][] */ 52,-104,-65,59,-71,23,-5,33,127,-2,25,33,-10,-14,74,73, 
  /* [57][0][][] */ 18,17,60,-99,106,13,9,32,60,-49,30,127,37,-12,52,-27, 
  /* [58][0][][] */ 111,-73,19,-40,10,27,20,127,27,87,-9,83,19,14,121,18, 
  /* [59][0][][] */ -63,38,39,-63,23,-66,0,13,17,29,-124,-89,-127,-47,55,-12, 
  /* [60][0][][] */ 40,-6,16,0,2,-14,-2,-39,31,127,2,63,-7,-23,-34,-17, 
  /* [61][0][][] */ 48,38,26,-48,-104,-127,9,-55,-51,-44,-31,-12,-81,-71,93,92, 
  /* [62][0][][] */ -40,82,-40,49,-92,127,-32,50,-55,-16,-38,18,-40,32,77,-119, 
  /* [63][0][][] */ 19,-17,-80,-127,-3,-24,85,-14,-4,-114,-20,25,-48,55,20,-25, 
  /* [64][0][][] */ -4,40,26,1,74,-72,23,78,-127,9,-92,5,-57,113,94,65, 
  /* [65][0][][] */ -51,-30,-48,-3,89,52,-30,-55,-127,-52,-23,-22,-83,69,-87,15, 
  /* [66][0][][] */ -1,79,-15,47,-39,127,-28,20,-52,35,-40,43,-29,35,69,-102, 
  /* [67][0][][] */ 31,-4,-31,-37,-1,-97,45,-97,-10,28,17,127,-44,-11,-7,-93, 
  /* [68][0][][] */ 32,-127,-35,76,-20,21,26,96,41,64,101,45,-107,57,1,4, 
  /* [69][0][][] */ -5,96,97,-122,47,30,-4,64,30,68,30,50,103,-115,-1,-127, 
  /* [70][0][][] */ 56,29,63,-63,106,26,-82,-53,-127,-116,-13,49,-19,71,-118,-5, 
  /* [71][0][][] */ -24,-99,-16,-12,50,-41,12,56,-69,55,-75,-2,-8,127,12,34, 
  /* [72][0][][] */ 2,2,67,-14,-43,-20,-73,-55,-10,69,-55,74,53,127,-124,-34, 
  /* [73][0][][] */ -19,-48,-4,-74,65,-113,20,-88,108,109,99,-11,55,-47,-98,127, 
  /* [74][0][][] */ -8,18,-17,78,-92,-14,92,13,95,79,40,127,122,36,-57,15, 
  /* [75][0][][] */ -43,41,-17,17,-37,127,-17,20,-32,35,-46,47,-6,51,19,-83, 
  /* [76][0][][] */ -53,89,-25,44,-74,20,-31,10,60,66,-41,-26,68,-66,-127,40, 
  /* [77][0][][] */ 61,63,-127,108,46,31,41,80,-4,-14,114,-20,32,38,72,61, 
  /* [78][0][][] */ 26,-48,-10,-40,58,-94,19,-48,31,21,104,-37,14,-31,-44,127, 
  /* [79][0][][] */ -43,40,-8,33,-11,-35,-43,6,-127,-15,58,9,95,39,-82,-33, 
  /* [80][0][][] */ -86,-6,87,36,100,65,2,-127,-100,84,-84,-23,-29,-63,-6,76, 
  /* [81][0][][] */ 67,74,-5,7,12,-39,58,92,-83,127,-48,-17,-50,42,115,106, 
  /* [82][0][][] */ 78,127,-13,-54,-9,-83,74,-120,44,57,-72,52,94,-49,90,-46, 
  /* [83][0][][] */ -2,-15,40,11,24,46,-18,-127,68,-27,102,8,57,-93,-72,-120, 
  /* [84][0][][] */ -127,-69,-17,-25,5,96,72,-17,86,88,92,90,56,75,-91,12, 
  /* [85][0][][] */ 127,-11,110,-64,48,-12,-7,69,36,99,-64,-7,-9,46,112,7, 
  /* [86][0][][] */ -81,44,-47,11,14,60,29,37,69,23,127,-2,-43,76,6,-7, 
  /* [87][0][][] */ 12,-50,32,-50,39,-127,25,-38,52,-4,60,-45,27,-41,-38,66, 
  /* [88][0][][] */ -104,72,55,-18,127,-19,41,10,-65,-54,114,-52,77,118,81,-123, 
  /* [89][0][][] */ -21,33,-28,23,-40,127,-13,50,-68,19,-32,24,-18,64,38,-81, 
  /* [90][0][][] */ 47,-118,11,39,125,14,59,48,-21,-127,-117,-12,3,-21,-73,48, 
  /* [91][0][][] */ -35,67,-10,-73,31,-52,-72,47,-80,32,-124,-91,-127,-108,0,31, 
  /* [92][0][][] */ 78,18,53,22,-127,-101,14,15,-29,40,-13,-1,-40,-68,26,2, 
  /* [93][0][][] */ 8,-107,-127,84,-31,-32,-21,95,74,61,24,78,-51,66,-16,2, 
  /* [94][0][][] */ 87,23,127,-26,23,-21,23,27,34,98,-11,42,9,-4,114,-14, 
  /* [95][0][][] */ -91,-56,-41,-28,127,-38,80,121,-76,-29,-102,-72,8,20,-63,52, 
};
const TfArray<96, float> quant19_scale = { 96, { 0.0029792545828968287, 0.0017079950775951147, 0.0038291215896606445, 0.0047074542380869389, 0.0031746868044137955, 0.0010268344776704907, 0.0045421868562698364, 0.0035754975397139788, 0.0012835136149078608, 0.0031967554241418839, 0.0011437536450102925, 0.0035237753763794899, 0.0026783901266753674, 0.0058846306055784225, 0.0014643287286162376, 0.0016590207815170288, 0.0028623468242585659, 0.0023070790339261293, 0.0033978368155658245, 0.0018727207789197564, 0.0033852497581392527, 0.0016883339267224073, 0.0029661403968930244, 0.003765543457120657, 0.0018014706438407302, 0.0030256465543061495, 0.0038580556865781546, 0.0036786242853850126, 0.002042277017608285, 0.0067189480178058147, 0.0031939365435391665, 0.0028382760938256979, 0.0046572866849601269, 0.0011516986414790154, 0.002640273654833436, 0.0020672848913818598, 0.0026207277551293373, 0.0025218487717211246, 0.0023915988858789206, 0.0040128836408257484, 0.00097580300644040108, 0.0036079182755202055, 0.0026259142905473709, 0.0018663343507796526, 0.0026306002400815487, 0.0024516324046999216, 0.0019774686079472303, 0.0016207608859986067, 0.0039567062631249428, 0.003128749318420887, 0.0041988170705735683, 0.0020158574916422367, 0.0034953136928379536, 0.0021146971266716719, 0.0012936793500557542, 0.003774185199290514, 0.0030674368608742952, 0.001977965934202075, 0.003070551436394453, 0.0029478603973984718, 0.0035731573589146137, 0.0014430906157940626, 0.0023377991747111082, 0.0039472882635891438, 0.00099044002126902342, 0.0016210225876420736, 0.0038280447479337454, 0.0030124324839562178, 0.001653999206610024, 0.002583672758191824, 0.00262417271733284, 0.0031190132722258568, 0.0023337733000516891, 0.0025432880502194166, 0.0026917660143226385, 0.0035333558917045593, 0.0049662450328469276, 0.0012778133386746049, 0.0032487325370311737, 0.003099426394328475, 0.00231742556206882, 0.0019132199231535196, 0.002594697754830122, 0.0009366503800265491, 0.0025177390780299902, 0.0017689273227006197, 0.0022103299852460623, 0.0043396647088229656, 0.0033543121535331011, 0.0035773396957665682, 0.0026152876671403646, 0.0010226987069472671, 0.0026334216818213463, 0.0021716798655688763, 0.0023238735739141703, 0.0016039262991398573, } };
const TfLiteAffineQuantization quant19 = { (TfLiteFloatArray*)&quant19_scale, (TfLiteIntArray*)&g0::quant6_zero, 0 };
const MODEL_SECTION(EI_MODEL_SECTION) ALIGN(16) int32_t tensor_data20[16] = { -4155, 11348, -20620, 433, 12357, -17080, -45862, -7224, -8219, 6619, -17079, -16430, 6547, -11354, -1934, -1250, };
const TfArray<16, float> quant20_scale = { 16, { 0.00016457133460789919, 0.00012927164789289236, 0.00014028108853381127, 0.00015442569565493613, 0.00011987455218331888, 0.00015317401266656816, 7.3905815952457488e-05, 0.00010720120189944282, 8.9861125161405653e-05, 0.00010521841613808647, 0.00012687242997344583, 0.00012853564112447202, 9.0821842604782432e-05, 8.4284758486319333e-05, 0.00012044976028846577, 0.00011364505917299539, } };
const TfLiteAffineQuantization quant20 = { (TfLiteFloatArray*)&quant20_scale, (TfLiteIntArray*)&g0::quant8_zero, 0 };
const MODEL_SECTION(EI_MODEL_SECTION) ALIGN(16) int8_t tensor_data21[16*1*1*48] = { 
  /* [0][0][][] */ 16,42,14,-35,52,62,-46,56,-23,111,10,36,-33,28,-26,35,40,61,41,-48,-56,62,1,38,48,36,39,43,-43,-50,-15,69,-30,19,-74,56,53,-127,-21,7,12,-23,62,3,1,-54,-48,-13, 
  /* [1][0][][] */ -56,8,-84,-31,8,96,-52,32,-18,-37,-35,29,51,-9,-30,-28,-21,-24,5,8,-54,35,-94,-37,-57,-42,46,65,-11,-29,45,-28,3,-64,-24,46,5,-52,127,-33,-19,32,-40,-19,29,58,22,11, 
  /* [2][0][][] */ 4,-11,58,-20,-17,-79,32,22,98,67,-64,16,103,-46,127,96,-73,-12,-28,18,75,-68,-39,-93,7,-30,27,-74,44,42,-37,15,26,-40,55,29,-57,9,-6,-25,40,30,55,-16,10,-82,79,-61, 
  /* [3][0][][] */ 28,13,-27,-35,43,119,5,-4,32,-36,24,-16,-40,0,6,31,-35,-60,33,-102,-8,-8,-17,-22,-44,77,127,61,-10,-37,27,31,50,-18,96,47,-49,-58,3,38,26,16,-10,-13,33,9,-1,-10, 
  /* [4][0][][] */ 112,-13,2,-60,100,95,53,8,69,-9,-111,34,53,-33,27,-10,-117,-124,-41,-89,-7,23,-55,-44,-84,120,-97,127,-53,-46,54,72,51,-65,38,-38,-12,26,-30,19,-49,9,-20,41,-57,101,-18,-46, 
  /* [5][0][][] */ 0,-1,-65,9,-17,54,14,-19,66,49,38,102,53,-25,27,1,-39,127,-10,34,13,-6,-64,-10,38,3,-59,-35,-5,33,14,-9,-33,9,44,18,-44,5,-88,6,92,-22,26,50,-7,5,-42,29, 
  /* [6][0][][] */ 57,23,19,54,17,-19,95,-62,-2,81,126,88,51,38,-31,36,29,-35,-76,90,50,-60,-47,43,-77,85,87,0,119,63,-11,-9,83,-63,-111,6,90,48,5,-7,13,66,44,-13,80,127,49,6, 
  /* [7][0][][] */ -88,-5,-34,25,-69,-47,10,32,69,111,-46,-69,-108,22,-25,-24,-72,95,-9,120,-48,33,31,46,-17,-91,-44,-80,32,52,3,6,-30,6,19,-22,10,-50,127,14,11,43,18,-27,48,77,-34,1, 
  /* [8][0][][] */ -3,-77,67,-65,79,-60,67,-26,-25,-109,33,4,-16,-15,39,26,12,8,-54,105,16,37,-25,17,68,-20,-44,-27,-117,-33,-53,-123,11,-55,2,92,-4,24,113,5,14,-3,59,127,3,-87,-32,90, 
  /* [9][0][][] */ 7,-30,15,-58,49,88,-34,67,8,-27,-30,-22,26,-49,99,-19,16,-114,35,48,-58,26,64,-35,-34,-93,-20,72,60,66,-33,-29,-61,44,7,127,-35,-44,-46,-29,-28,-1,43,85,66,74,-59,1, 
  /* [10][0][][] */ -20,25,-22,0,29,23,-66,-39,41,44,67,-9,-40,-2,39,-52,-49,127,-7,38,9,-15,24,35,-47,51,13,99,32,-2,-26,-2,62,16,2,22,-17,-50,-28,21,-87,-7,31,-21,23,46,39,25, 
  /* [11][0][][] */ -45,57,-22,37,35,63,-6,14,9,23,-125,-80,84,26,-17,-55,8,25,-54,-46,-2,-17,127,5,40,5,-14,41,3,22,-8,48,22,2,-44,4,36,84,123,11,26,-31,77,-5,-52,-24,103,-6, 
  /* [12][0][][] */ -54,-6,32,10,-57,-57,6,-4,-25,-38,-127,24,78,-104,25,32,38,104,78,-114,-38,47,-52,-83,9,-24,33,-29,12,25,-6,59,73,67,46,-37,-47,-19,22,-1,-31,5,47,-1,29,-17,-41,-23, 
  /* [13][0][][] */ -58,-106,-49,-84,-7,26,60,3,-127,9,111,-69,42,50,110,6,110,26,5,-99,72,-79,126,7,-76,14,-35,0,-28,-101,-103,27,39,-22,-65,55,26,-46,77,-69,8,44,75,36,53,-18,84,-66, 
  /* [14][0][][] */ 57,18,-65,4,-46,21,-81,-29,-29,47,57,40,-15,-53,17,-45,45,-109,30,13,81,-64,38,7,-16,113,-87,-1,-54,-32,-89,-3,127,29,92,-15,-87,13,-25,61,-16,-38,96,-40,-65,-44,-64,50, 
  /* [15][0][][] */ -65,8,37,24,87,2,3,22,24,65,-12,50,44,-8,-41,-25,4,40,-1,-41,14,-42,-51,-42,45,-54,-39,60,-44,11,22,13,-62,6,127,-10,-88,18,39,-5,-47,-25,17,-11,-39,-26,-17,4, 
};
const TfArray<4, int> tensor_dimension21 = { 4, { 16,1,1,48 } };
const TfArray<16, float> quant21_scale = { 16, { 0.0077299121767282486, 0.0060718869790434837, 0.0065889996476471424, 0.0072533716447651386, 0.00563050527125597, 0.0071945800445973873, 0.0034713547211140394, 0.0050352383404970169, 0.0042207753285765648, 0.0049421070143580437, 0.0059591955505311489, 0.0060373162850737572, 0.0042659002356231213, 0.0039588534273207188, 0.005657522939145565, 0.0053379060700535774, } };
const TfLiteAffineQuantization quant21 = { (TfLiteFloatArray*)&quant21_scale, (TfLiteIntArray*)&g0::quant8_zero, 0 };
const MODEL_SECTION(EI_MODEL_SECTION) ALIGN(16) int32_t tensor_data22[48] = { 12027, 623, 18426, 1664, 16311, -1027, 46135, 295, 8090, 34712, 4542, 21542, 3249, 10794, 36431, 29014, 1267, -550, 2607, 51908, 745, 14718, 170, 11707, 14563, 35578, -2648, 832, -1648, 14680, 18859, 723, 2155, 646, 794, 20213, 9243, 25727, 3445, 17098, 25553, -1931, 1290, 12610, -897, 3030, 39883, 19690, };
const TfArray<1, int> tensor_dimension22 = { 1, { 48 } };
const TfArray<48, float> quant22_scale = { 48, { 8.1332756963092834e-05, 5.9822614275617525e-05, 7.2792434366419911e-05, 0.00011167555203428492, 0.00013032789865974337, 0.00010356438724556938, 3.8623347791144624e-05, 0.00015121608157642186, 8.558850095141679e-05, 5.8477609854890034e-05, 6.2959494243841618e-05, 0.00014272086264099926, 6.0088335885666311e-05, 0.00011955940135521814, 4.683731822296977e-05, 5.7223751355195418e-05, 8.5710300481878221e-05, 7.7354779932647943e-05, 0.00014140510756988078, 3.8347570807673037e-05, 7.5952062616124749e-05, 6.8505978561006486e-05, 0.00014140932762529701, 0.00011019548401236534, 7.4043935455847532e-05, 6.5954853198491037e-05, 6.6743072238750756e-05, 3.5202792787458748e-05, 0.00024391605984419584, 0.00011307554814266041, 8.8385255367029458e-05, 0.00026606721803545952, 8.5792700701858848e-05, 0.00020648239296860993, 9.9044766102451831e-05, 7.4126561230514199e-05, 9.1170288214925677e-05, 7.1710135671310127e-05, 8.0285521107725799e-05, 8.624876500107348e-05, 5.0756545533658937e-05, 0.00018837487732525915, 0.00031806904007680714, 6.7469292844180018e-05, 0.00016992451855912805, 5.8424819144420326e-05, 4.5337594201555476e-05, 6.7233188019599766e-05, } };
const TfArray<48, int> quant22_zero = { 48, { 0,0,0,0,0,0,0,0,0,0,0,0,0,0,0,0,0,0,0,0,0,0,0,0,0,0,0,0,0,0,0,0,0,0,0,0,0,0,0,0,0,0,0,0,0,0,0,0 } };
const TfLiteAffineQuantization quant22 = { (TfLiteFloatArray*)&quant22_scale, (TfLiteIntArray*)&quant22_zero, 0 };
const MODEL_SECTION(EI_MODEL_SECTION) ALIGN(16) int8_t tensor_data23[1*3*3*48] = { 
  /* [0][0][][] */ -83,48,-127,74,-127,67,-84,127,-90,-33,56,-69,85,-88,-49,-61,53,55,123,-72,58,-86,96,-103,-89,-64,74,107,-97,-90,-60,-3,106,-70,33,-127,-51,-127,69,-27,1,-69,127,-117,117,85,-46,-27, -107,101,-96,107,-70,116,-66,59,-127,-99,73,-88,122,-127,-40,-82,57,81,127,-87,127,-69,98,-127,-59,-109,76,124,3,-60,-96,-13,101,-127,70,-127,-89,-109,110,-107,-96,127,115,-68,-29,120,-51,-64, -39,64,15,24,15,59,-39,12,-74,-12,42,-29,47,-52,-19,3,29,36,63,-9,18,-7,51,-32,-60,-30,33,59,85,-20,-58,-68,73,-86,19,-39,-16,-11,29,-78,-115,-26,28,-23,-66,34,1,-17, 
  /* [0][1][][] */ -67,90,-39,118,-65,127,-101,91,-76,-76,77,-58,85,-78,-90,-125,92,88,-59,-116,84,-127,87,-61,-72,-93,127,127,-127,-127,-73,92,120,39,81,-101,-127,-66,93,-91,-98,-111,120,-61,127,97,-109,-101, -127,127,-85,127,-106,104,-127,109,-103,-127,127,-127,127,-85,-127,-127,127,127,-70,-127,125,-110,127,-83,-127,-127,112,105,11,-96,-127,79,127,51,127,-116,-110,-75,127,-127,-91,126,91,-78,-54,127,-127,-127, -47,65,-71,3,-30,15,-83,98,-70,-43,69,-39,54,-12,-62,-4,85,62,-61,-52,10,-26,36,-16,-96,-69,77,55,109,-59,-71,-15,58,4,65,-44,-30,-40,71,-69,-21,-62,71,-45,-95,46,-25,-98, 
